<?xml version="1.0"?>
<opencv_storage>
<opencv_ml_svm>
  <format>3</format>
  <svmType>C_SVC</svmType>
  <kernel>
    <type>RBF</type>
    <gamma>5.0625000000000009e-01</gamma></kernel>
  <C>6.2500000000000000e+01</C>
  <term_criteria><epsilon>1.1920928955078125e-07</epsilon>
    <iterations>1000</iterations></term_criteria>
  <var_count>25</var_count>
  <class_count>3</class_count>
  <class_labels type_id="opencv-matrix">
    <rows>3</rows>
    <cols>1</cols>
    <dt>i</dt>
    <data>
      0 1 3</data></class_labels>
  <sv_total>954</sv_total>
  <support_vectors>
    <_>
      4.11568396e-02 3.22580636e-02 1.71301439e-01 5.78420460e-02
      7.11902082e-02 2.78086755e-02 1.77975520e-02 2.11345926e-02
      8.89877602e-03 1.44605115e-02 2.33592875e-02 1.00111235e-02
      2.00222470e-02 8.78754109e-02 2.11345926e-02 1.77975520e-02
      1.03448272e-01 2.89210230e-02 8.45383704e-02 2.00222470e-02
      6.67408202e-03 2.44716331e-02 4.44938801e-02 2.33592875e-02
      2.00222470e-02</_>
    <_>
      1.54095693e-02 2.02757493e-02 3.40632610e-02 1.78426597e-02
      1.62205994e-02 3.24411988e-02 1.10300079e-01 1.90592054e-02
      4.94728275e-02 2.31143553e-02 3.44687738e-02 1.96674764e-01
      1.82481743e-02 4.09570150e-02 1.98702347e-02 2.51419302e-02
      1.04622871e-01 3.97404693e-02 1.98702347e-02 1.33819943e-02
      6.52879104e-02 2.14922950e-02 2.59529594e-02 2.51419302e-02
      1.09489048e-02</_>
    <_>
      2.95162015e-02 2.31913012e-02 6.53573051e-02 2.39680428e-02
      2.75188647e-02 4.03905921e-02 9.32090580e-02 1.37594324e-02
      5.57035096e-02 3.69507335e-02 5.02663143e-02 6.05858862e-02
      2.43009329e-02 3.58410999e-02 2.57434547e-02 3.57301384e-02
      9.65379551e-02 3.88371088e-02 3.05148698e-02 1.60896592e-02
      5.11540174e-02 2.41899695e-02 5.69241010e-02 2.17487793e-02
      2.19707061e-02</_>
    <_>
      4.13016267e-02 2.25281604e-02 1.83979973e-01 2.75344178e-02
      4.50563207e-02 4.75594513e-02 1.23904884e-01 2.62828544e-02
      1.87734663e-02 1.25156445e-02 6.25782236e-02 1.25156448e-03
      1.12640802e-02 6.13266602e-02 1.25156445e-02 1.00125158e-02
      1.35168970e-01 8.76095146e-03 6.13266602e-02 2.75344178e-02
      1.37672089e-02 1.12640802e-02 1.50187742e-02 1.62703376e-02
      2.50312896e-03</_>
    <_>
      1.79878045e-02 5.30487821e-02 5.03048766e-03 7.02743903e-02
      6.40243897e-03 4.32926826e-02 6.09756112e-02 2.37804875e-02
      7.24085346e-02 8.17073137e-02 4.54268306e-02 3.81097570e-03
      1.00000001e-01 4.26829280e-03 2.83536594e-02 7.28658512e-02
      3.61280479e-02 1.15853660e-02 8.68902449e-03 3.39939035e-02
      1.43292686e-02 7.24085346e-02 5.18292673e-02 5.12195118e-02
      3.01829260e-02</_>
    <_>
      7.66773149e-02 2.55591050e-02 3.19488812e-03 2.55591050e-02
      2.87539922e-02 6.70926496e-02 7.66773149e-02 2.23642178e-02
      4.47284356e-02 5.11182100e-02 3.51437703e-02 1.15015969e-01
      3.19488794e-02 2.23642178e-02 6.07028753e-02 3.19488794e-02
      9.58466437e-03 7.98722059e-02 0. 2.55591050e-02 6.38977587e-02
      3.51437703e-02 2.87539922e-02 2.55591050e-02 1.27795525e-02</_>
    <_>
      1.29098007e-02 2.10633595e-02 1.73772708e-01 1.44385928e-02
      1.52879218e-02 3.41430269e-02 1.03108540e-01 9.17275343e-03
      3.73704769e-02 2.24222858e-02 3.09155751e-02 6.57380670e-02
      1.57975201e-02 3.66910137e-02 1.25700692e-02 2.25921515e-02
      1.45065397e-01 4.41651084e-02 2.31017489e-02 4.58637672e-03
      3.51622216e-02 1.39289955e-02 8.15355852e-02 1.78359095e-02
      6.62476616e-03</_>
    <_>
      2.28928197e-02 2.53208466e-02 5.13354130e-02 2.63614282e-02
      3.08706202e-02 5.54977432e-02 6.76378757e-02 1.38744358e-02
      5.79257719e-02 3.39923687e-02 4.30107526e-02 1.01283386e-01
      3.15643437e-02 3.39923687e-02 2.84425952e-02 3.15643437e-02
      5.65383285e-02 6.79847375e-02 1.90773495e-02 1.66493244e-02
      6.69441521e-02 2.63614282e-02 5.44571616e-02 1.76899061e-02
      1.87304895e-02</_>
    <_>
      6.36636615e-02 1.80180185e-02 8.38838816e-02 2.54254248e-02
      7.72772804e-02 5.02502508e-02 6.42642677e-02 2.80280281e-02
      4.74474467e-02 1.36136133e-02 3.38338353e-02 6.54654652e-02
      2.10210215e-02 4.66466472e-02 1.92192197e-02 1.34134134e-02
      7.74774775e-02 5.36536537e-02 2.74274275e-02 2.22222228e-02
      4.36436422e-02 1.64164156e-02 4.96496484e-02 1.56156160e-02
      2.24224217e-02</_>
    <_>
      1.49488589e-02 1.69158150e-02 7.98583776e-02 5.03540523e-02
      1.84893794e-02 2.63572000e-02 4.44531851e-02 1.50668770e-01
      1.84893794e-02 2.16365065e-02 3.10778916e-02 3.42250206e-02
      3.50118019e-02 2.55704168e-02 9.83477570e-03 2.12431159e-02
      6.60896972e-02 2.47836355e-02 3.02911103e-02 1.48308426e-01
      2.55704168e-02 3.42250206e-02 2.00629421e-02 1.77025963e-02
      3.38316299e-02</_>
    <_>
      4.20689657e-02 2.20689662e-02 1.05517246e-01 1.93103459e-02
      2.62068976e-02 3.10344845e-02 8.68965536e-02 1.17241386e-02
      3.72413807e-02 3.24137956e-02 3.10344845e-02 3.58620696e-02
      3.65517251e-02 2.13793106e-02 3.58620696e-02 1.72413792e-02
      1.42068967e-01 3.79310362e-02 4.34482768e-02 1.58620700e-02
      3.17241400e-02 3.17241400e-02 5.31034507e-02 1.86206903e-02
      3.31034511e-02</_>
    <_>
      5.17711155e-02 1.63487736e-02 1.44414172e-01 1.63487736e-02
      9.53678489e-02 3.81471366e-02 5.44959120e-03 1.90735683e-02
      7.62942731e-02 2.72479560e-03 1.63487736e-02 5.44959120e-02
      1.36239780e-02 1.03542231e-01 8.17438681e-03 8.17438681e-03
      8.17438681e-03 1.25340596e-01 2.45231614e-02 5.44959120e-03
      5.99455014e-02 1.08991824e-02 7.35694841e-02 2.72479560e-03
      1.90735683e-02</_>
    <_>
      7.13422000e-02 2.78113671e-02 1.00362763e-01 2.05562282e-02
      6.77146316e-02 4.23216447e-02 4.47400250e-02 7.25513930e-03
      1.93470381e-02 1.08827092e-02 2.66021769e-02 4.83675972e-02
      2.53929868e-02 8.22249129e-02 3.02297473e-02 3.99032645e-02
      6.89238235e-02 7.85973445e-02 3.74848880e-02 8.46432894e-03
      3.50665078e-02 2.17654184e-02 5.32043539e-02 1.20918993e-02
      1.93470381e-02</_>
    <_>
      1.94704048e-02 2.49221176e-02 1.61993772e-01 2.33644843e-02
      3.81619930e-02 3.34890969e-02 1.09034264e-02 1.94704048e-02
      2.88161989e-02 2.18068529e-02 4.12772559e-02 6.85358196e-02
      2.57009342e-02 8.56697783e-02 8.56697746e-03 2.41433010e-02
      8.80062282e-02 5.68535812e-02 5.21806851e-02 1.47975069e-02
      1.40186911e-02 7.78816175e-03 9.34579372e-02 1.86915882e-02
      1.79127716e-02</_>
    <_>
      6.19819835e-02 1.69369373e-02 5.65765798e-02 2.66666673e-02
      4.32432443e-02 3.89189199e-02 7.45945945e-02 3.96396406e-02
      5.04504517e-02 3.74774784e-02 4.21621650e-02 2.77477484e-02
      2.30630636e-02 5.26126139e-02 3.81981991e-02 2.63063069e-02
      8.50450471e-02 3.35135162e-02 2.09009014e-02 3.42342332e-02
      3.89189199e-02 2.63063069e-02 5.44144139e-02 2.45045051e-02
      2.55855862e-02</_>
    <_>
      3.78680043e-02 2.91033033e-02 2.55075283e-02 9.88088995e-02
      6.83946386e-02 2.09378973e-02 6.37875497e-02 5.50228469e-02
      3.95160690e-02 2.97400560e-02 2.34474503e-02 1.20233726e-02
      6.43868446e-02 2.49831453e-02 1.82785224e-02 3.25118005e-02
      5.53599522e-02 2.41216570e-02 2.83167288e-02 6.09034374e-02
      1.62559003e-02 6.00794069e-02 5.00037447e-02 2.79796235e-02
      3.26616243e-02</_>
    <_>
      2.05128212e-02 1.53846163e-02 5.12820529e-03 1.53846163e-02
      4.10256423e-02 5.64102568e-02 1.02564104e-01 0. 1.02564106e-02
      2.05128212e-02 3.58974375e-02 1.07692309e-01 6.15384653e-02
      2.56410260e-02 8.71794894e-02 3.58974375e-02 3.07692327e-02
      3.58974375e-02 1.02564106e-02 4.10256423e-02 9.23076943e-02
      6.15384653e-02 2.05128212e-02 2.05128212e-02 4.61538471e-02</_>
    <_>
      3.34728025e-02 2.33499799e-02 2.88837887e-02 2.91537307e-02
      2.32150089e-02 2.84788758e-02 9.52895135e-02 3.11782956e-02
      7.13996440e-02 3.21230926e-02 2.38898639e-02 6.31664172e-02
      4.23808880e-02 2.03806181e-02 6.93750829e-02 3.69820483e-02
      6.76204637e-02 4.50803079e-02 1.53866913e-02 2.60493979e-02
      5.69577515e-02 3.95464972e-02 3.56323384e-02 2.28100959e-02
      3.81967872e-02</_>
    <_>
      2.16579549e-02 3.51008214e-02 9.41000730e-02 4.18222547e-02
      1.71769988e-02 5.82524277e-02 8.21508616e-02 2.46452577e-02
      3.73413004e-02 6.34802133e-02 6.12397306e-02 1.71769988e-02
      3.51008214e-02 2.38984320e-02 3.36071700e-02 3.28603424e-02
      6.27333820e-02 2.46452577e-02 3.80881242e-02 2.61389092e-02
      2.91262139e-02 2.61389092e-02 5.07841669e-02 3.28603424e-02
      2.98730396e-02</_>
    <_>
      2.86405813e-02 3.59015726e-02 2.94473581e-02 4.51795086e-02
      2.13795882e-02 1.85558684e-02 4.47761193e-02 5.40540554e-02
      2.58168615e-02 2.70270277e-02 1.77490916e-02 2.50100847e-02
      6.77692592e-02 2.42033079e-02 1.19402982e-01 3.38846296e-02
      7.78539702e-02 3.54981832e-02 2.98507456e-02 3.59015726e-02
      2.05728114e-02 5.16337231e-02 4.51795086e-02 2.54134722e-02
      5.92981055e-02</_>
    <_>
      1.33666903e-01 7.86275975e-03 7.14796316e-03 4.14581858e-02
      8.86347443e-02 2.35882774e-02 5.93280941e-02 4.14581858e-02
      2.71622594e-02 2.14438885e-02 1.92994997e-02 3.35954279e-02
      3.00214440e-02 3.00214440e-02 5.86132966e-02 2.50178706e-02
      3.14510390e-02 3.71694081e-02 7.14796304e-04 7.29092211e-02
      6.36168718e-02 3.35954279e-02 1.92994997e-02 7.86275975e-03
      8.50607604e-02</_>
    <_>
      1.69204734e-02 4.56852764e-02 5.07614203e-03 3.04568522e-02
      2.36886628e-02 1.11675128e-01 6.93739429e-02 6.93739429e-02
      1.01522841e-02 5.24534658e-02 5.41455150e-02 3.21488976e-02
      3.89170870e-02 2.70727575e-02 5.07614203e-02 3.21488976e-02
      2.53807101e-02 1.69204734e-02 4.56852764e-02 5.75296097e-02
      2.70727575e-02 3.72250415e-02 2.53807101e-02 5.58375642e-02
      3.89170870e-02</_>
    <_>
      2.44410895e-02 2.70289704e-02 3.78836878e-02 5.95931299e-02
      2.71727405e-02 2.25001797e-02 4.44252752e-02 1.15232550e-01
      3.06232478e-02 2.59506870e-02 2.12781262e-02 3.13421041e-02
      4.06872258e-02 3.06951329e-02 2.50880606e-02 2.65257712e-02
      5.01042344e-02 2.19969805e-02 2.78197117e-02 1.23643160e-01
      3.34267840e-02 4.60067578e-02 3.03357057e-02 2.31471509e-02
      5.30515425e-02</_>
    <_>
      1.50564611e-02 3.63864489e-02 5.52070253e-02 1.12923458e-02
      3.76411527e-03 1.25470515e-02 1.51819319e-01 3.76411527e-03
      6.14805520e-02 1.75658725e-02 2.50941031e-02 1.43036380e-01
      1.00376410e-02 2.63488069e-02 1.63111668e-02 3.51317450e-02
      1.27979919e-01 6.90087825e-02 1.12923458e-02 3.76411527e-03
      6.52446672e-02 5.01882052e-03 6.64993748e-02 1.00376410e-02
      1.63111668e-02</_>
    <_>
      2.49584019e-02 2.66222954e-02 3.49417627e-02 2.16306150e-02
      2.32945085e-02 5.99001646e-02 6.98835254e-02 1.33111477e-02
      4.49251235e-02 1.99667215e-02 5.82362711e-02 5.49084842e-02
      1.33111477e-02 4.15973365e-02 2.82861888e-02 2.82861888e-02
      1.36439264e-01 4.15973365e-02 2.16306150e-02 1.33111477e-02
      2.49584019e-02 1.83028281e-02 1.28119797e-01 2.32945085e-02
      2.82861888e-02</_>
    <_>
      7.31552169e-02 2.60814242e-02 4.38931286e-02 4.26208638e-02
      3.05343512e-02 4.19847332e-02 5.59796430e-02 2.41730288e-02
      4.77099232e-02 2.67175566e-02 3.43511440e-02 9.86005068e-02
      3.88040729e-02 4.89821881e-02 3.81679386e-02 2.73536891e-02
      4.89821881e-02 3.81679386e-02 2.41730288e-02 2.67175566e-02
      4.32569981e-02 3.30788791e-02 3.62595432e-02 2.60814242e-02
      2.41730288e-02</_>
    <_>
      2.18749996e-02 2.50000004e-02 1.39062509e-01 1.71875004e-02
      1.56250000e-02 1.25000002e-02 9.06250030e-02 1.56250002e-03
      1.06250003e-01 7.81250000e-03 2.34375000e-02 2.18749996e-02
      1.56250002e-03 3.59374993e-02 1.56250002e-03 4.68750019e-03
      1.96875006e-01 3.12500000e-02 2.65625007e-02 4.68750019e-03
      2.34375000e-02 4.68750019e-03 1.50000006e-01 2.96874996e-02
      6.25000009e-03</_>
    <_>
      4.39872295e-02 2.13550907e-02 4.98048924e-02 5.86732849e-02
      4.98048924e-02 3.54735702e-02 4.15750258e-02 4.97339480e-02
      3.50478888e-02 3.07910591e-02 4.20007072e-02 2.63923369e-02
      3.48350480e-02 5.44874072e-02 2.14260370e-02 3.12876888e-02
      5.22170961e-02 3.65377776e-02 2.97268517e-02 7.16566145e-02
      3.29904221e-02 3.77438813e-02 4.90954220e-02 2.22774036e-02
      4.10783961e-02</_>
    <_>
      1.18152527e-02 4.72610109e-02 1.86895818e-01 4.29645553e-02
      1.50375944e-02 1.93340499e-02 6.87432885e-02 2.04081647e-02
      1.82599351e-02 3.11493017e-02 2.57787332e-02 1.71858221e-02
      2.68528461e-02 2.36305054e-02 1.39634805e-02 3.11493017e-02
      1.53598279e-01 1.28893666e-02 2.57787332e-02 2.04081647e-02
      5.26315793e-02 3.22234184e-02 3.32975313e-02 5.47798090e-02
      1.39634805e-02</_>
    <_>
      2.69849524e-02 2.33523622e-02 9.75609794e-02 2.33523622e-02
      1.81629490e-02 5.24130799e-02 9.49662700e-02 1.40114175e-02
      6.69434369e-02 3.42501327e-02 5.91593161e-02 6.33108467e-02
      3.06175407e-02 3.42501327e-02 2.54281275e-02 3.00986003e-02
      5.91593161e-02 3.73637788e-02 1.92008317e-02 2.23144796e-02
      5.70835508e-02 3.21743637e-02 3.78827192e-02 1.81629490e-02
      2.17955373e-02</_>
    <_>
      2.63968334e-02 5.71931377e-02 8.57897028e-02 2.85965689e-02
      6.86317682e-02 3.34359892e-02 4.70743515e-02 2.99164094e-02
      2.41970960e-02 2.41970960e-02 2.28772555e-02 4.61944565e-02
      1.89177301e-02 4.39947210e-02 2.72767264e-02 2.94764638e-02
      8.66696015e-02 3.60756703e-02 3.73955145e-02 2.99164094e-02
      2.06775181e-02 3.16761993e-02 7.17113987e-02 5.05939275e-02
      2.11174656e-02</_>
    <_>
      1.90168880e-02 2.56075785e-02 7.36646950e-02 7.81271458e-02
      4.94301766e-02 1.74378678e-02 6.52203709e-02 3.43951657e-02
      3.85829993e-02 2.12824382e-02 2.10078266e-02 3.15117389e-02
      3.00700255e-02 2.84910053e-02 1.28381159e-02 2.65000686e-02
      7.88823292e-02 2.38912534e-02 9.00041163e-02 6.20623343e-02
      3.18550020e-02 3.19923088e-02 6.21309876e-02 2.66373735e-02
      1.93601530e-02</_>
    <_>
      7.35749379e-02 1.36587135e-02 1.69368051e-02 5.11746481e-02
      7.44855180e-02 2.87743565e-02 3.56947742e-02 4.97177206e-02
      5.37242740e-02 2.36751046e-02 3.25987972e-02 3.49663086e-02
      5.17209955e-02 4.17046063e-02 4.71680909e-02 3.09597515e-02
      2.54962668e-02 5.82771786e-02 1.78473871e-02 4.31615375e-02
      3.87907475e-02 5.15388809e-02 3.95192131e-02 1.54798757e-02
      4.93534878e-02</_>
    <_>
      1.51515156e-02 3.03030312e-02 5.21212108e-02 4.90909107e-02
      3.57575752e-02 2.42424235e-02 5.75757585e-02 3.33333351e-02
      6.54545426e-02 3.39393951e-02 3.69696990e-02 3.39393951e-02
      5.21212108e-02 1.69696975e-02 6.66666701e-02 4.66666669e-02
      1.75757576e-02 3.57575752e-02 3.51515152e-02 4.18181829e-02
      5.93939386e-02 4.48484868e-02 4.24242429e-02 3.39393951e-02
      3.87878790e-02</_>
    <_>
      2.33324561e-02 2.42552087e-02 3.66464555e-02 3.71737443e-02
      2.54416037e-02 3.92828919e-02 7.50065967e-02 3.66464555e-02
      5.24650700e-02 3.49327736e-02 4.19193283e-02 1.01502771e-02
      4.09965739e-02 4.41602990e-02 6.44608513e-02 3.38781998e-02
      9.42525789e-02 2.28051692e-02 2.90007927e-02 2.53097825e-02
      1.88505147e-02 4.75876629e-02 8.15976858e-02 2.91326139e-02
      3.07144765e-02</_>
    <_>
      6.83884993e-02 2.18261182e-02 2.43724976e-02 3.09203342e-02
      4.72899228e-02 5.63841388e-02 1.96435060e-02 9.71262231e-02
      4.29246984e-02 2.76464168e-02 4.51073088e-02 7.78464898e-02
      2.80101839e-02 5.85667491e-02 2.69188788e-02 2.07348112e-02
      3.34667154e-02 4.54710796e-02 1.41869765e-02 5.67479059e-02
      5.20189144e-02 2.76464168e-02 2.65551098e-02 2.03710441e-02
      2.98290271e-02</_>
    <_>
      2.37308498e-02 1.89246014e-02 9.19194967e-02 1.53199155e-02
      1.62210874e-02 3.90507653e-02 1.19855806e-01 2.22288966e-02
      6.42835647e-02 2.19285060e-02 2.79363170e-02 6.15800507e-02
      7.20937178e-03 2.31300686e-02 1.62210874e-02 2.37308498e-02
      1.32472217e-01 3.81495953e-02 1.95253827e-02 1.89246014e-02
      1.05737455e-01 8.71132407e-03 4.74616997e-02 2.10273359e-02
      1.47191342e-02</_>
    <_>
      6.39419928e-02 2.70270258e-02 4.94396836e-02 3.29597890e-02
      5.86684234e-02 3.95517461e-02 8.50362554e-02 3.42781805e-02
      4.74620946e-02 2.76862215e-02 4.21885289e-02 2.90046129e-02
      4.28477265e-02 2.70270258e-02 4.41661179e-02 2.70270258e-02
      4.21885289e-02 4.28477265e-02 2.96638086e-02 2.63678301e-02
      3.49373743e-02 3.49373743e-02 5.33948578e-02 2.10942645e-02
      3.62557657e-02</_>
    <_>
      1.04895104e-02 1.39860138e-02 7.34265745e-02 1.39860138e-02
      1.74825173e-02 4.89510484e-02 9.44055915e-02 1.74825173e-02
      1.46853149e-01 2.79720277e-02 1.57342657e-01 1.04895104e-02 0.
      2.09790207e-02 3.49650346e-03 3.14685330e-02 9.79020968e-02
      5.59440553e-02 5.59440553e-02 1.74825173e-02 2.79720277e-02
      6.99300691e-03 1.74825173e-02 1.74825173e-02 1.39860138e-02</_>
    <_>
      3.55029590e-02 5.32544404e-02 1.18343197e-02 5.91715984e-02
      1.77514795e-02 5.91715984e-02 1.24260359e-01 0. 5.91715984e-03
      6.50887564e-02 1.77514795e-02 1.06508881e-01 4.14201170e-02
      2.36686394e-02 2.95857992e-02 4.73372787e-02 3.55029590e-02
      1.77514795e-02 4.73372787e-02 5.91715984e-03 2.95857992e-02
      2.95857992e-02 4.14201170e-02 3.55029590e-02 5.91715984e-02</_>
    <_>
      3.06748450e-02 9.20245424e-03 2.45398767e-02 2.45398767e-02
      2.45398767e-02 8.58895704e-02 3.68098170e-02 2.76073609e-02
      5.82822077e-02 3.68098170e-02 1.01226993e-01 3.06748459e-03
      3.68098170e-02 2.14723926e-02 2.45398767e-02 4.60122675e-02
      1.13496929e-01 3.98772992e-02 9.20245424e-03 1.53374225e-02
      4.90797535e-02 4.29447852e-02 1.22699380e-01 9.20245424e-03
      6.13496918e-03</_>
    <_>
      1.24795716e-02 2.05516759e-02 2.78809480e-02 6.85385987e-02
      1.35690579e-02 4.20937948e-02 5.20972610e-02 7.69573599e-02
      3.39721665e-02 5.57123758e-02 2.82771252e-02 2.55534090e-02
      6.83900341e-02 1.50547214e-02 4.49165553e-02 5.08592054e-02
      3.60520966e-02 1.63422972e-02 9.11206845e-03 1.13752291e-01
      1.80260483e-02 6.14569373e-02 2.54048426e-02 2.18887720e-02
      6.10607602e-02</_>
    <_>
      5.10471202e-02 2.55235601e-02 2.02879589e-02 3.46858650e-02
      5.69371730e-02 6.08638749e-02 6.34816736e-02 1.96335074e-02
      7.13350773e-02 4.45026197e-02 7.13350773e-02 3.27225141e-02
      2.74869110e-02 3.40314135e-02 2.35602092e-02 3.79581153e-02
      3.99214663e-02 5.10471202e-02 2.09424086e-02 2.35602092e-02
      4.12303656e-02 3.27225141e-02 6.41361251e-02 2.02879589e-02
      3.07591632e-02</_>
    <_>
      1.36718750e-02 1.36718750e-02 3.32031250e-02 2.34375000e-02
      2.53906250e-02 2.34375000e-02 6.44531250e-02 4.68750000e-02
      1.26953125e-01 1.36718750e-02 1.56250000e-02 1.36718750e-01
      1.95312500e-02 3.32031250e-02 5.85937500e-03 2.73437500e-02
      7.81250000e-03 4.88281250e-02 1.36718750e-02 4.68750000e-02
      1.83593750e-01 2.34375000e-02 7.81250000e-03 1.17187500e-02
      3.32031250e-02</_>
    <_>
      2.38993708e-02 1.88679248e-02 5.53459115e-02 1.50943398e-02
      2.26415098e-02 4.52830195e-02 1.00628927e-01 3.77358496e-03
      5.03144637e-02 4.27672938e-02 3.01886797e-02 1.89937100e-01
      1.88679248e-02 3.77358496e-02 5.15723266e-02 1.76100619e-02
      1.00628927e-01 3.52201238e-02 1.25786159e-02 2.51572323e-03
      4.15094346e-02 2.26415098e-02 2.76729558e-02 1.50943398e-02
      1.76100619e-02</_>
    <_>
      5.17693348e-02 1.96592398e-02 2.40498036e-01 1.70380082e-02
      5.70117980e-02 2.81782448e-02 3.34207080e-02 1.31061603e-03
      3.01441681e-02 1.96592398e-02 2.88335532e-02 5.43905646e-02
      1.17955441e-02 1.17300138e-01 8.51900410e-03 1.57273933e-02
      9.10878107e-02 6.68414161e-02 1.76933166e-02 5.89777203e-03
      1.83486249e-02 5.89777203e-03 3.34207080e-02 1.50720840e-02
      1.04849283e-02</_>
    <_>
      1.85185187e-02 1.51515147e-02 2.86195278e-02 2.35690232e-02
      6.73400657e-03 6.39730617e-02 2.05387205e-01 6.73400657e-03
      6.22895621e-02 3.36700343e-02 5.55555560e-02 4.54545431e-02
      2.86195278e-02 2.35690232e-02 4.88215461e-02 2.02020202e-02
      8.24915841e-02 4.20875400e-02 1.51515147e-02 2.02020202e-02
      9.42760929e-02 1.34680131e-02 1.17845116e-02 2.02020202e-02
      1.34680131e-02</_>
    <_>
      4.93427701e-02 2.22446918e-02 1.69868562e-02 4.89383228e-02
      3.59959565e-02 4.85338718e-02 6.83518723e-02 2.91203242e-02
      6.18806891e-02 3.11425682e-02 4.71183024e-02 3.96359973e-02
      3.47826108e-02 3.01314462e-02 3.03336717e-02 2.89181005e-02
      3.39737125e-02 4.93427701e-02 3.70070785e-02 3.23559158e-02
      7.30030313e-02 3.43781598e-02 4.71183024e-02 3.01314462e-02
      3.92315462e-02</_>
    <_>
      3.84135172e-02 2.44932659e-02 2.56887060e-02 7.19124377e-02
      4.55861650e-02 2.50245724e-02 3.82009931e-02 1.18773744e-01
      2.40682196e-02 2.02959385e-02 2.46260911e-02 5.65576591e-02
      5.67967482e-02 3.27816568e-02 1.79050546e-02 2.47323532e-02
      3.47474962e-02 4.18670140e-02 2.70701051e-02 8.62046033e-02
      2.79467627e-02 6.25879988e-02 2.52105296e-02 2.08006799e-02
      2.77076736e-02</_>
    <_>
      1.79450531e-02 9.21073556e-03 1.61346674e-01 2.39796732e-02
      2.15975866e-02 2.33444497e-02 1.26409397e-01 1.73098296e-02
      4.39892001e-02 1.85802765e-02 2.17563920e-02 5.51056042e-02
      1.41337141e-02 2.85850409e-02 2.95378752e-02 2.11211685e-02
      1.39590278e-01 4.71653156e-02 4.09718901e-02 2.06447504e-02
      4.19247262e-02 1.09575987e-02 4.11306955e-02 8.09909496e-03
      1.55629665e-02</_>
    <_>
      8.95270258e-02 1.26689188e-02 4.47635129e-02 1.35135138e-02
      4.89864871e-02 5.57432435e-02 5.48986495e-02 9.29054059e-03
      8.19256753e-02 4.30743247e-02 3.46283801e-02 9.29054096e-02
      2.11148653e-02 3.12500000e-02 1.60472970e-02 3.96959484e-02
      2.36486495e-02 8.61486495e-02 7.60135148e-03 1.01351356e-02
      9.96621624e-02 2.11148653e-02 3.04054059e-02 1.01351356e-02
      2.11148653e-02</_>
    <_>
      6.14709109e-02 2.25027446e-02 1.09769488e-02 4.22612503e-02
      6.75082356e-02 5.04939631e-02 5.98243698e-02 2.52469815e-02
      6.75082356e-02 3.95170152e-02 6.14709109e-02 3.34796943e-02
      3.89681682e-02 4.72008772e-02 2.57958286e-02 3.78704742e-02
      1.42700328e-02 6.03732169e-02 8.78155883e-03 3.34796943e-02
      4.50054891e-02 4.50054891e-02 5.87266758e-02 1.37211857e-02
      2.85400655e-02</_>
    <_>
      6.06571175e-02 1.26368999e-02 4.12805378e-02 1.01095196e-02
      3.28559391e-02 4.97051366e-02 5.56023568e-02 1.93765797e-02
      1.07834876e-01 1.76916588e-02 2.86436379e-02 5.56023568e-02
      2.86436379e-02 3.36983986e-02 6.48694187e-02 1.01095196e-02
      2.94860993e-02 1.10362254e-01 8.42459965e-04 1.76916588e-02
      9.35130566e-02 2.69587189e-02 5.64448163e-02 9.26706009e-03
      2.61162594e-02</_>
    <_>
      5.64971752e-03 4.23728824e-02 4.51977402e-02 1.12994350e-02
      1.97740123e-02 8.47457647e-02 1.07344635e-01 2.82485876e-03
      3.67231630e-02 3.10734473e-02 4.51977402e-02 1.32768363e-01
      2.54237279e-02 2.25988701e-02 3.10734473e-02 2.54237279e-02
      1.01694912e-01 3.38983051e-02 0. 8.47457629e-03 5.64971752e-02
      3.10734473e-02 4.23728824e-02 2.82485876e-02 2.82485876e-02</_>
    <_>
      2.45098043e-02 3.92156877e-02 3.18627469e-02 2.94117667e-02
      1.71568636e-02 7.10784346e-02 1.49509802e-01 1.47058833e-02
      4.90196086e-02 3.43137272e-02 3.67647074e-02 1.96078438e-02
      1.96078438e-02 3.67647074e-02 2.45098043e-02 4.16666679e-02
      8.82352963e-02 3.43137272e-02 2.45098043e-02 2.45098043e-02
      4.41176482e-02 1.96078438e-02 6.61764741e-02 2.20588241e-02
      3.67647074e-02</_>
    <_>
      3.89826968e-02 1.68855526e-02 6.64998963e-02 3.85657698e-02
      7.40045831e-02 2.50156354e-02 3.00187618e-02 6.73337504e-02
      4.50281426e-02 2.48071719e-02 2.56410260e-02 1.73024815e-02
      4.66958508e-02 3.81488428e-02 4.12757955e-02 2.71002706e-02
      5.29497601e-02 3.18949334e-02 4.41942886e-02 4.79466319e-02
      2.06378978e-02 4.79466319e-02 6.92099258e-02 2.16802172e-02
      4.02334780e-02</_>
    <_>
      3.14720795e-02 1.43824024e-02 2.65651438e-02 5.10998294e-02
      3.43485624e-02 4.45008464e-02 7.37732649e-02 4.33164127e-02
      4.24703881e-02 3.97631116e-02 5.02538085e-02 3.55329961e-02
      4.48392555e-02 3.01184431e-02 7.44500831e-02 3.45177650e-02
      2.74111666e-02 4.06091362e-02 2.13197973e-02 4.46700491e-02
      3.77326570e-02 5.21150604e-02 3.36717442e-02 1.45516070e-02
      5.65143824e-02</_>
    <_>
      1.35135138e-02 3.45345363e-02 7.20720738e-02 1.80180185e-02
      4.50450461e-03 6.75675720e-02 6.90690726e-02 7.50750769e-03
      4.20420431e-02 3.90390381e-02 4.35435437e-02 1.50150154e-02
      3.45345363e-02 2.85285302e-02 7.80780762e-02 3.30330357e-02
      1.32132143e-01 2.40240246e-02 1.20120123e-02 1.50150154e-02
      4.20420431e-02 2.70270277e-02 6.90690726e-02 5.25525548e-02
      2.55255252e-02</_>
    <_>
      8.06451589e-03 2.95698922e-02 3.38709682e-01 1.34408604e-02
      2.68817209e-02 2.41935477e-02 8.87096748e-02 2.68817204e-03
      1.34408604e-02 2.41935477e-02 4.30107526e-02 8.60215053e-02
      1.61290318e-02 6.18279576e-02 1.61290318e-02 1.34408604e-02
      7.79569894e-02 1.88172050e-02 2.68817204e-03 8.06451589e-03
      2.95698922e-02 1.07526882e-02 1.88172050e-02 2.68817209e-02 0.</_>
    <_>
      4.73107584e-02 3.61055806e-02 6.52390420e-02 4.05876487e-02
      6.20019957e-02 4.00896445e-02 2.49003991e-02 3.23705189e-02
      3.03784870e-02 3.23705189e-02 5.10458201e-02 2.09163353e-02
      2.93824710e-02 5.02988063e-02 2.39043832e-02 2.81374510e-02
      7.39541873e-02 3.23705189e-02 6.84760958e-02 3.43625508e-02
      3.21215168e-02 3.63545828e-02 4.63147424e-02 3.56075689e-02
      2.53984071e-02</_>
    <_>
      5.06977588e-02 4.52216938e-02 2.93234419e-02 4.92845811e-02
      5.74103519e-02 4.92845811e-02 3.72725688e-02 2.96767373e-02
      3.69192734e-02 3.49761546e-02 6.39462993e-02 2.68503800e-02
      4.57516350e-02 4.23953384e-02 3.69192734e-02 3.10899150e-02
      3.69192734e-02 4.34552208e-02 3.88623923e-02 2.84402054e-02
      2.77336165e-02 3.37396227e-02 5.03444634e-02 4.15121019e-02
      3.19731496e-02</_>
    <_>
      2.06489675e-02 2.35988200e-02 1.76991150e-01 8.84955749e-03
      5.89970499e-03 1.47492625e-02 6.19469024e-02 0. 9.14454311e-02
      8.84955749e-03 2.35988200e-02 5.89970499e-03 2.94985250e-02
      4.71976399e-02 5.89970499e-03 5.89970499e-03 1.59292042e-01
      6.78466111e-02 3.53982300e-02 5.89970499e-03 3.53982300e-02
      1.17994100e-02 1.38643071e-01 8.84955749e-03 5.89970499e-03</_>
    <_>
      2.53389645e-02 2.00044457e-02 3.26739289e-02 4.22316082e-02
      2.97843963e-02 2.40053348e-02 6.02356084e-02 4.28984202e-02
      5.02333865e-02 3.57857309e-02 3.22293825e-02 6.33474067e-02
      5.86797073e-02 3.04512102e-02 4.57879528e-02 3.80084477e-02
      5.37897311e-02 6.00133352e-02 2.02267170e-02 3.46743725e-02
      5.06779291e-02 5.86797073e-02 3.13402973e-02 1.86708160e-02
      4.02311608e-02</_>
    <_>
      6.35294095e-02 8.23529344e-03 3.76470573e-02 1.52941169e-02
      2.47058813e-02 6.82352930e-02 1.07058816e-01 7.05882348e-03
      7.88235292e-02 2.23529395e-02 4.58823517e-02 8.70588198e-02
      1.88235287e-02 3.41176465e-02 3.76470573e-02 2.23529395e-02
      5.99999987e-02 9.41176414e-02 5.88235259e-03 8.23529344e-03
      5.52941151e-02 1.52941169e-02 4.82352935e-02 7.05882348e-03
      2.70588230e-02</_>
    <_>
      2.98977178e-02 4.24862318e-02 9.44138505e-03 2.98977178e-02
      1.57356411e-02 2.91109364e-02 9.67741907e-02 7.94649869e-02
      3.54051925e-02 5.03540523e-02 3.54051925e-02 2.75373720e-02
      2.36034617e-02 1.18017308e-02 6.45161271e-02 4.48465794e-02
      6.92368224e-02 1.80959869e-02 1.96695514e-02 8.02517682e-02
      3.93391028e-02 3.22580636e-02 2.43902449e-02 3.61919738e-02
      5.42879626e-02</_>
    <_>
      3.20579112e-02 2.48190276e-02 1.09617375e-01 1.96483973e-02
      1.34436395e-02 2.84384694e-02 1.01344362e-01 5.68769388e-02
      2.48190276e-02 2.53360905e-02 2.32678391e-02 7.44570792e-02
      2.43019648e-02 6.15305044e-02 2.37849019e-02 1.70630813e-02
      1.13236815e-01 3.77456062e-02 2.89555322e-02 3.87797318e-02
      3.82626690e-02 1.55118927e-02 3.10237855e-02 2.01654602e-02
      1.55118927e-02</_>
    <_>
      1.10429451e-02 3.31288353e-02 1.48466259e-01 2.45398767e-02
      4.41717803e-02 3.68098170e-02 9.69325155e-02 4.17177901e-02
      4.29447852e-02 1.71779133e-02 6.01226985e-02 1.59509201e-02
      9.81595088e-03 5.52147254e-02 1.47239268e-02 8.58895667e-03
      9.32515338e-02 9.81595088e-03 8.22085887e-02 1.22699384e-02
      2.33128835e-02 1.34969326e-02 3.06748468e-02 4.53987718e-02
      2.82208584e-02</_>
    <_>
      3.89658064e-02 1.99068561e-02 4.02439944e-03 8.69548693e-02
      3.90417352e-02 1.92740895e-02 2.87023205e-02 7.87288994e-02
      3.17269489e-02 4.94950525e-02 1.64519474e-02 7.12495856e-03
      8.36897939e-02 1.02255177e-02 5.41142523e-02 4.43316698e-02
      1.37057379e-02 1.58571471e-02 1.08456295e-02 1.23250395e-01
      1.49965826e-02 7.31099248e-02 2.58928332e-02 1.84388366e-02
      9.11437869e-02</_>
    <_>
      2.08449140e-02 1.97331849e-02 9.72762611e-03 2.14007776e-02
      1.55642023e-02 3.41856591e-02 5.21122850e-02 2.44997218e-01
      2.47359648e-02 3.36297937e-02 2.26514731e-02 2.84880493e-02
      1.50083378e-02 1.94552522e-02 2.91828793e-02 2.34852694e-02
      2.48749293e-02 2.08449140e-02 2.07059477e-02 1.65508613e-01
      2.90439129e-02 1.98721513e-02 3.44635919e-02 1.84824895e-02
      5.10005541e-02</_>
    <_>
      2.99401209e-02 0. 1.37724549e-01 1.19760484e-02 2.99401209e-02
      8.38323385e-02 1.31736532e-01 5.98802418e-03 1.19760484e-02
      2.39520967e-02 1.79640725e-02 4.19161692e-02 0. 1.19760484e-02
      1.79640725e-02 2.99401209e-02 2.27544919e-01 2.39520967e-02
      1.79640725e-02 5.98802418e-03 3.59281451e-02 5.98802418e-03
      7.78443143e-02 5.98802418e-03 1.19760484e-02</_>
    <_>
      1.02605652e-02 4.61725406e-02 1.30957207e-02 5.60280830e-02
      1.86310261e-02 5.07627949e-02 5.75131662e-02 4.92777117e-02
      2.49763746e-02 4.91427034e-02 5.99432997e-02 8.64047557e-03
      4.84676659e-02 1.62008926e-02 5.13028242e-02 5.07627949e-02
      6.54786006e-02 1.28257060e-02 4.81976531e-02 5.31929284e-02
      1.95760783e-02 4.84676659e-02 3.99621986e-02 4.60375324e-02
      5.50830327e-02</_>
    <_>
      2.20588241e-02 1.83823537e-02 4.41176482e-02 1.83823537e-02
      1.47058824e-02 9.55882370e-02 8.45588222e-02 3.67647060e-03
      7.72058815e-02 2.57352944e-02 9.92647037e-02 3.30882370e-02
      7.35294120e-03 6.61764741e-02 0. 3.67647074e-02 5.14705889e-02
      9.92647037e-02 2.57352944e-02 2.94117648e-02 3.67647074e-02
      3.67647060e-03 4.77941185e-02 3.67647074e-02 2.20588241e-02</_>
    <_>
      2.99145319e-02 3.96825410e-02 1.44688651e-01 2.86935288e-02
      3.72405387e-02 1.64835174e-02 4.45665456e-02 3.05250324e-02
      2.74725277e-02 3.05250324e-02 3.60195376e-02 4.39560451e-02
      2.44200248e-02 4.27350439e-02 2.25885231e-02 2.74725277e-02
      7.93650821e-02 3.05250324e-02 5.98290637e-02 2.93040313e-02
      3.66300382e-02 3.47985364e-02 4.63980474e-02 3.23565342e-02
      2.38095243e-02</_>
    <_>
      1.91728305e-02 1.97206251e-02 2.16379091e-02 2.54724752e-02
      1.42426742e-02 3.75239663e-02 8.70994255e-02 7.36784488e-02
      4.62886915e-02 3.88934538e-02 4.05368395e-02 3.69761735e-02
      3.58805805e-02 1.28731858e-02 6.10791594e-02 2.35551912e-02
      8.32648650e-02 2.93070413e-02 1.64338537e-02 7.47740343e-02
      5.94357736e-02 2.84853484e-02 3.72500718e-02 2.10901126e-02
      5.53273112e-02</_>
    <_>
      1.20120123e-02 3.90390381e-02 1.50150150e-01 9.00900923e-03
      9.00900923e-03 2.40240246e-02 7.20720738e-02 9.00900923e-03
      4.80480492e-02 3.30330357e-02 1.50150154e-02 1.41141146e-01
      6.00600615e-03 2.70270277e-02 4.80480492e-02 3.60360369e-02
      5.10510504e-02 4.50450480e-02 3.00300308e-02 1.50150154e-02
      6.90690726e-02 1.50150154e-02 9.00900923e-03 3.00300308e-02
      5.70570603e-02</_>
    <_>
      1.25823850e-02 6.18334338e-02 8.74775276e-03 8.23247433e-02
      1.49790291e-02 5.03295399e-02 6.63870573e-02 2.36069504e-02
      5.41641712e-02 6.31515905e-02 5.26063517e-02 1.24625526e-02
      5.82384653e-02 1.07849007e-02 2.58837622e-02 5.97962849e-02
      4.86518890e-02 1.39005389e-02 2.10904740e-02 3.24745364e-02
      1.84541643e-02 4.08627912e-02 7.64529631e-02 6.36309162e-02
      2.66027562e-02</_>
    <_>
      3.09563279e-02 2.37700380e-02 5.80431148e-02 2.32172459e-02
      3.81426178e-02 4.20121588e-02 1.24930896e-01 7.73908198e-03
      5.69375344e-02 1.82421226e-02 8.01547766e-02 2.54284125e-02
      3.09563279e-02 3.42730768e-02 1.21614151e-02 1.82421226e-02
      1.08347148e-01 5.85959069e-02 3.86954099e-02 5.52791590e-03
      2.76395790e-02 1.99004970e-02 7.79436156e-02 2.15588715e-02
      1.65837482e-02</_>
    <_>
      3.28000002e-02 2.31999997e-02 7.99999945e-03 4.80000004e-02
      4.87999991e-02 2.87999995e-02 8.55999961e-02 5.19999973e-02
      4.80000004e-02 6.79999962e-02 1.99999996e-02 2.87999995e-02
      5.83999977e-02 1.59999989e-02 6.31999969e-02 7.59999976e-02
      2.96000000e-02 3.92000005e-02 1.67999994e-02 3.43999974e-02
      5.35999984e-02 3.59999985e-02 1.91999990e-02 2.15999987e-02
      4.39999998e-02</_>
    <_>
      6.06860183e-02 2.11081803e-02 1.84696577e-02 2.63852254e-02
      2.37467028e-02 2.37467028e-02 1.58311352e-02 2.63852254e-03
      7.65171498e-02 1.05540901e-02 4.74934056e-02 2.11081803e-01
      1.05540901e-02 5.27704507e-02 7.91556761e-03 2.63852254e-02
      5.27704507e-02 1.02902383e-01 3.43007930e-02 5.27704507e-03
      6.06860183e-02 1.84696577e-02 5.54089732e-02 2.37467028e-02
      1.05540901e-02</_>
    <_>
      1.72376651e-02 2.43482012e-02 1.20232709e-01 4.99892272e-02
      3.53372134e-02 3.05968542e-02 6.50721863e-02 1.68067235e-02
      7.34755471e-02 3.05968542e-02 3.55526842e-02 2.13316102e-02
      5.81771173e-02 6.89506605e-02 1.05580697e-02 2.99504418e-02
      7.80004337e-02 2.32708473e-02 2.90885586e-02 1.98233146e-02
      2.41327304e-02 3.33979763e-02 6.98125437e-02 2.65029091e-02
      7.75694894e-03</_>
    <_>
      2.47933865e-02 1.23966932e-02 2.89256182e-02 2.47933865e-02
      1.23966932e-02 4.95867729e-02 6.19834699e-02 4.13223123e-03
      1.11570247e-01 4.95867729e-02 4.54545431e-02 1.32231399e-01
      2.06611566e-02 4.95867729e-02 3.71900797e-02 1.65289249e-02
      7.85123929e-02 5.78512363e-02 0. 4.13223123e-03 7.85123929e-02
      8.26446246e-03 2.06611566e-02 2.47933865e-02 4.54545431e-02</_>
    <_>
      3.46950218e-02 2.85394527e-02 1.95858981e-02 2.85394527e-02
      3.02182436e-02 5.65193072e-02 7.83435926e-02 3.69334072e-02
      1.00167878e-01 4.36485745e-02 5.76384999e-02 2.63010636e-02
      2.96586473e-02 2.90990490e-02 2.63010636e-02 2.96586473e-02
      4.92445454e-02 3.35758254e-02 1.39899272e-02 2.63010636e-02
      6.60324544e-02 3.07778399e-02 5.98768890e-02 3.46950218e-02
      2.96586473e-02</_>
    <_>
      5.53359687e-02 2.13438738e-02 1.26482211e-02 5.29644266e-02
      4.66403142e-02 6.08695634e-02 6.79841861e-02 2.13438738e-02
      5.21739125e-02 3.16205546e-02 4.50592861e-02 3.16205546e-02
      4.98023704e-02 2.92490106e-02 4.98023704e-02 2.60869563e-02
      3.87351774e-02 4.18972336e-02 3.00395247e-02 3.55731212e-02
      4.98023704e-02 4.42687720e-02 3.71541493e-02 2.68774703e-02
      4.11067195e-02</_>
    <_>
      4.86891381e-02 1.19850188e-02 5.76779023e-02 2.99625471e-02
      2.32209750e-02 2.69662924e-02 5.69288395e-02 1.94756556e-02
      3.89513113e-02 2.69662924e-02 2.02247202e-02 9.13857669e-02
      1.57303363e-02 5.76779023e-02 4.04494405e-02 2.39700377e-02
      8.76404494e-02 4.94382009e-02 3.97003740e-02 1.57303363e-02
      9.66292173e-02 1.72284655e-02 6.36704117e-02 1.87265910e-02
      2.09737830e-02</_>
    <_>
      1.03771083e-01 5.90891019e-03 1.00318685e-01 4.71384972e-02
      1.07555442e-01 1.06891515e-02 3.01420800e-02 2.33036783e-02
      7.50232413e-02 6.50644023e-03 1.34776263e-02 2.82830968e-02
      4.03664857e-02 5.47736026e-02 5.64334122e-03 1.00916214e-02
      5.95538467e-02 5.15867770e-02 2.42995620e-02 3.43247913e-02
      2.90798042e-02 4.01009172e-02 7.36953914e-02 4.71384963e-03
      1.96521059e-02</_>
    <_>
      2.13976167e-02 2.30227523e-02 1.22156009e-01 2.11267602e-02
      2.65438780e-02 4.25243787e-02 7.44853765e-02 6.44637048e-02
      2.89815813e-02 2.11267602e-02 3.95449623e-02 3.35861333e-02
      2.49187425e-02 2.70855911e-02 2.97941491e-02 2.24810392e-02
      7.39436597e-02 2.08559055e-02 3.25027071e-02 6.79848343e-02
      5.63380271e-02 2.76273023e-02 3.19609977e-02 1.92307699e-02
      4.63163592e-02</_>
    <_>
      1.75566934e-02 1.24359913e-02 6.36430159e-02 1.24359913e-02
      1.97512805e-02 2.70665698e-02 1.22896858e-01 1.17044626e-02
      1.42648131e-01 1.90197509e-02 2.85296272e-02 3.73079740e-02
      1.46305785e-02 4.31602076e-02 1.53621072e-02 1.75566934e-02
      6.36430159e-02 7.31528923e-02 9.50987544e-03 6.58376003e-03
      1.11923926e-01 1.38990497e-02 9.07095820e-02 1.24359913e-02
      1.24359913e-02</_>
    <_>
      4.09165323e-02 2.38952544e-02 2.43316963e-02 1.84397157e-02
      4.42989655e-02 2.69503556e-02 7.21222013e-02 5.51009290e-02
      5.27004898e-02 2.25859247e-02 2.52045821e-02 8.06328431e-02
      2.31314786e-02 3.42607759e-02 4.03709784e-02 1.90943815e-02
      6.90671057e-02 7.07037672e-02 1.51663944e-02 4.10256423e-02
      6.83033317e-02 2.46590283e-02 4.65902910e-02 2.40043644e-02
      3.64429913e-02</_>
    <_>
      6.90626502e-02 1.18504129e-02 1.22389505e-02 3.43856215e-02
      4.14764434e-02 4.15735766e-02 6.89655170e-02 6.75084963e-02
      4.13793102e-02 2.29237489e-02 3.91452163e-02 6.25546351e-02
      3.05002425e-02 3.69111225e-02 3.14715877e-02 1.97183099e-02
      3.43856215e-02 4.61389013e-02 1.51529862e-02 8.71296749e-02
      6.07090816e-02 2.78776102e-02 3.80767360e-02 1.30160265e-02
      4.58474979e-02</_>
    <_>
      3.16255516e-03 1.64452866e-02 1.72675520e-01 3.79506638e-03
      2.53004418e-03 8.85515474e-03 7.71663487e-02 0. 8.72865245e-02
      3.79506638e-03 1.45477541e-02 4.80708405e-02 5.69259934e-03
      4.17457297e-02 6.32511033e-03 5.06008836e-03 1.59392789e-01
      1.96078420e-02 1.13851987e-02 6.32511044e-04 3.73181514e-02
      3.79506638e-03 2.54901946e-01 1.32827321e-02 2.53004418e-03</_>
    <_>
      3.93381193e-02 9.21011530e-03 9.69403684e-02 3.29378694e-02
      2.96596922e-02 3.37183885e-02 1.00374646e-01 2.32594442e-02
      6.72806725e-02 2.13862006e-02 1.88885406e-02 4.35529165e-02
      2.23228224e-02 2.85669677e-02 2.65376195e-02 1.88885406e-02
      8.66375268e-02 4.29285020e-02 4.33968157e-02 2.96596922e-02
      5.52606918e-02 2.07617860e-02 7.04027489e-02 1.03028407e-02
      2.77864486e-02</_>
    <_>
      3.43926847e-02 1.74140185e-02 4.13582921e-02 2.04614718e-02
      2.43796259e-02 2.65563782e-02 1.70657381e-01 6.74793199e-02
      8.53286907e-02 1.78493690e-02 1.69786680e-02 4.44057472e-02
      1.52372662e-02 4.22289968e-02 1.48019157e-02 1.43665653e-02
      7.44449273e-02 2.91684810e-02 1.91554204e-02 6.57379180e-02
      4.78885509e-02 2.00261213e-02 4.09229435e-02 1.56726167e-02
      3.30866352e-02</_>
    <_>
      9.46348757e-02 1.19225038e-02 1.49031300e-02 2.38450076e-02
      6.63189292e-02 5.66318929e-02 8.42026845e-02 3.94932926e-02
      5.88673614e-02 1.34128164e-02 4.69448604e-02 4.02384512e-02
      1.86289120e-02 6.40834570e-02 1.93740688e-02 1.26676606e-02
      3.94932926e-02 6.85543939e-02 1.11773470e-02 4.24739197e-02
      9.09090936e-02 2.38450076e-02 2.23546941e-02 8.19672178e-03
      2.68256329e-02</_>
    <_>
      1.01271376e-01 1.97281893e-02 2.76194662e-02 3.94563787e-02
      4.73476537e-02 2.54274439e-02 5.04164845e-02 4.25252095e-02
      2.32354235e-02 3.15651037e-02 1.88513808e-02 8.06663781e-02
      3.94563787e-02 2.14818064e-02 4.55940366e-02 1.92897860e-02
      4.60324436e-02 5.61157390e-02 1.97281893e-02 5.17316982e-02
      4.25252095e-02 4.07715924e-02 3.85795720e-02 1.84129775e-02
      5.21701016e-02</_>
    <_>
      0. 1.65289249e-02 3.88429731e-01 4.13223123e-03 0. 5.37190065e-02
      4.54545431e-02 0. 3.30578499e-02 1.65289249e-02 9.50413197e-02
      8.26446246e-03 4.13223123e-03 6.19834699e-02 4.13223123e-03
      4.13223123e-03 1.36363626e-01 3.71900797e-02 3.30578499e-02
      4.13223123e-03 2.06611566e-02 4.13223123e-03 1.65289249e-02
      1.23966932e-02 0.</_>
    <_>
      2.41111573e-02 2.00245194e-02 1.76134050e-01 2.08418481e-02
      2.81977933e-02 2.32938305e-02 2.16591749e-02 1.63465478e-02
      3.02411113e-02 1.92071926e-02 3.51450779e-02 7.51941130e-02
      1.59378834e-02 6.00735620e-02 6.53861882e-03 2.49284841e-02
      1.09521866e-01 4.49530035e-02 4.20923568e-02 1.59378834e-02
      2.20678393e-02 7.76461000e-03 1.25868410e-01 2.24765018e-02
      1.14425831e-02</_>
    <_>
      1.66399240e-01 4.57597896e-03 7.84453563e-03 4.35015149e-02
      2.91436374e-01 1.10536637e-02 4.15403806e-02 6.92339689e-02
      1.33119393e-02 7.42853759e-03 3.09027173e-03 8.73596035e-03
      2.02056225e-02 3.03084329e-02 1.27770845e-02 5.82397357e-03
      2.92981528e-02 3.29232775e-02 1.59862135e-02 7.76727870e-02
      9.56795644e-03 2.85255853e-02 1.51542164e-02 3.74398287e-03
      4.98603433e-02</_>
    <_>
      1.17696011e-02 2.52333116e-02 1.69113707e-02 6.86857253e-02
      1.47417225e-02 3.32580395e-02 9.40973684e-02 8.20008367e-02
      4.73756157e-02 2.96023302e-02 3.27230580e-02 2.81162690e-02
      6.37222826e-02 1.67627651e-02 1.65844373e-02 3.09695061e-02
      9.44837406e-02 1.77435651e-02 2.30636634e-02 8.23277682e-02
      2.55602449e-02 6.05123937e-02 3.49521488e-02 2.53521968e-02
      2.34500393e-02</_>
    <_>
      4.51388918e-02 2.56944448e-02 2.43055560e-02 3.95833328e-02
      4.23611104e-02 4.30555567e-02 5.55555560e-02 6.94444478e-02
      2.56944448e-02 3.19444463e-02 1.80555563e-02 1.87500007e-02
      2.84722224e-02 1.45833334e-02 1.28472224e-01 2.43055560e-02
      5.55555560e-02 9.02777817e-03 7.84722269e-02 6.94444478e-02
      3.61111127e-02 2.84722224e-02 1.11111114e-02 2.08333340e-02
      5.55555560e-02</_>
    <_>
      2.55344417e-02 1.80126689e-02 1.92003157e-02 2.71179732e-02
      3.38479802e-02 5.81947751e-02 1.12826601e-01 6.61124289e-02
      6.49247840e-02 1.88044347e-02 4.53285836e-02 3.30562145e-02
      1.82106104e-02 3.26603316e-02 1.88044347e-02 1.97941400e-02
      8.84798095e-02 3.48376893e-02 1.64291374e-02 5.95803633e-02
      5.89865409e-02 2.25653201e-02 6.86856657e-02 1.58353131e-02
      2.21694373e-02</_>
    <_>
      1.65094342e-02 2.75157224e-02 1.80817600e-02 3.30188684e-02
      1.96540877e-02 8.41194913e-02 7.94025138e-02 9.51257795e-02
      2.43710689e-02 3.30188684e-02 6.68238997e-02 1.49371065e-02
      3.22327018e-02 3.22327018e-02 3.53773572e-02 2.75157224e-02
      4.32389937e-02 1.65094342e-02 2.90880501e-02 1.02201253e-01
      4.08805013e-02 2.98742130e-02 2.12264135e-02 2.98742130e-02
      4.71698083e-02</_>
    <_>
      6.47642184e-03 2.50961352e-02 7.85266161e-02 2.30722521e-02
      1.45719489e-02 2.42865812e-02 1.43290833e-01 5.92997372e-02
      3.80489789e-02 2.38818061e-02 2.42865812e-02 6.90143704e-02
      1.98340416e-02 2.28698645e-02 8.09552707e-03 1.65958311e-02
      1.76887274e-01 2.04412062e-02 5.10018207e-02 4.25015166e-02
      2.67152395e-02 1.80125479e-02 2.97510624e-02 2.28698645e-02
      1.45719489e-02</_>
    <_>
      3.32722850e-02 1.49572659e-02 2.74725277e-02 3.32722850e-02
      2.31990237e-02 3.26617844e-02 5.76923080e-02 7.08180740e-02
      3.44932862e-02 2.07570214e-02 2.19780225e-02 1.67887673e-01
      2.50305254e-02 2.62515265e-02 2.07570214e-02 2.80830283e-02
      2.68620271e-02 7.14285746e-02 1.49572659e-02 9.34065953e-02
      4.82295491e-02 2.56410260e-02 3.41880359e-02 1.70940179e-02
      2.96092816e-02</_>
    <_>
      2.57708244e-02 2.34698579e-02 4.60193306e-02 3.63552682e-02
      1.74873453e-02 2.99125630e-02 6.67280257e-02 1.31155089e-01
      2.62310170e-02 1.65669583e-02 3.58950756e-02 4.14173976e-02
      2.66912114e-02 3.63552682e-02 2.53106300e-02 1.28854122e-02
      6.81086034e-02 2.71514039e-02 2.66912114e-02 1.07225038e-01
      3.91164310e-02 3.86562347e-02 3.77358496e-02 2.48504374e-02
      3.22135314e-02</_>
    <_>
      6.49651978e-03 2.55220421e-02 3.52668203e-02 4.91879359e-02
      1.16009284e-02 2.96983756e-02 7.00696036e-02 9.79118347e-02
      3.24825980e-02 1.57772619e-02 2.69141532e-02 2.04176325e-02
      4.50116023e-02 1.02088163e-02 3.06264497e-02 2.27378197e-02
      7.70301595e-02 2.83062644e-02 1.06728533e-02 1.53596282e-01
      3.01624127e-02 4.91879359e-02 3.20185609e-02 3.15545239e-02
      5.75406030e-02</_>
    <_>
      1.20981680e-02 5.53059112e-03 2.23643273e-01 1.55547876e-02
      3.76771502e-02 6.22191513e-03 1.83200836e-02 2.60974765e-01
      8.29588622e-03 2.41963356e-03 9.67853423e-03 4.07881103e-02
      7.25890091e-03 2.90356036e-02 1.90114062e-02 3.11095756e-03
      2.28136890e-02 1.83200836e-02 2.93812659e-02 1.41375735e-01
      1.03698587e-02 1.24438303e-02 1.76287591e-02 1.31351538e-02
      3.49118561e-02</_>
    <_>
      5.54216877e-02 7.22891558e-03 1.27710849e-01 1.68674700e-02
      4.09638546e-02 3.61445807e-02 1.20481931e-01 1.44578312e-02
      6.26506060e-02 1.44578312e-02 1.20481933e-02 1.44578312e-02
      1.68674700e-02 3.37349400e-02 2.40963860e-03 7.22891558e-03
      2.38554224e-01 1.44578312e-02 3.13253030e-02 1.44578312e-02
      2.40963865e-02 1.20481933e-02 6.50602430e-02 9.63855442e-03
      7.22891558e-03</_>
    <_>
      1.90385543e-02 3.09376493e-02 4.71204184e-02 3.33174691e-02
      1.52308429e-02 2.76059024e-02 7.52022862e-02 6.90147579e-02
      5.47358431e-02 2.80818660e-02 3.33174691e-02 1.28510240e-02
      1.95145179e-02 1.47548793e-02 1.90385543e-02 2.66539752e-02
      1.36125654e-01 2.90337950e-02 7.47263208e-02 6.18752986e-02
      3.09376493e-02 2.14183722e-02 6.52070493e-02 2.28462648e-02
      3.14136147e-02</_>
    <_>
      3.00546438e-02 2.86885239e-02 4.23497260e-02 2.93715838e-02
      3.55191231e-02 2.66393442e-02 1.01092890e-01 4.50819656e-02
      3.48360650e-02 3.14207636e-02 4.23497260e-02 5.46448082e-02
      3.34699452e-02 1.84426233e-02 3.82513665e-02 3.07377037e-02
      7.78688490e-02 3.00546438e-02 4.03005444e-02 4.98633869e-02
      3.21038254e-02 3.89344245e-02 3.41530032e-02 3.82513665e-02
      3.55191231e-02</_>
    <_>
      9.29839350e-03 1.71174984e-02 2.71555372e-02 2.92688087e-02
      8.34742188e-03 7.60777667e-03 3.29670310e-02 2.37003386e-01
      8.55874922e-03 1.29966186e-02 9.93237551e-03 9.19273030e-03
      1.99704133e-02 1.16229923e-02 3.14877443e-02 1.09890113e-02
      3.14877443e-02 9.08706710e-03 1.04606934e-02 2.96386302e-01
      1.36305997e-02 2.57819109e-02 1.09890113e-02 1.59551986e-02
      1.02704987e-01</_>
    <_>
      1.16279069e-02 2.63565890e-02 2.82170534e-01 1.39534883e-02
      1.16279069e-02 4.18604650e-02 8.21705461e-02 8.52713175e-03
      2.55813953e-02 1.93798449e-02 4.34108526e-02 1.90697670e-01
      1.39534883e-02 1.70542635e-02 1.00775193e-02 1.78294573e-02
      5.81395328e-02 2.55813953e-02 6.97674416e-03 5.42635657e-03
      3.41085270e-02 5.42635657e-03 1.55038759e-02 2.09302325e-02
      1.16279069e-02</_>
    <_>
      1.69671271e-02 2.38600224e-02 1.17179222e-01 3.18133645e-02
      2.75715813e-02 2.43902449e-02 1.11876994e-01 8.48356355e-03
      5.35524935e-02 2.27995776e-02 2.96924729e-02 4.77200449e-02
      3.12831402e-02 2.81018037e-02 3.34040299e-02 3.87062579e-02
      1.35737017e-01 3.71155888e-02 4.29480411e-02 1.21951224e-02
      4.08271514e-02 2.22693551e-02 2.49204673e-02 1.21951224e-02
      2.43902449e-02</_>
    <_>
      1.62162166e-02 2.88288295e-02 7.56756812e-02 7.20720738e-02
      2.88288295e-02 3.06306314e-02 8.46846849e-02 3.06306314e-02
      5.40540554e-03 1.08108111e-02 1.80180185e-02 3.78378406e-02
      1.44144148e-02 2.88288295e-02 1.80180185e-03 2.34234240e-02
      1.31531537e-01 1.80180185e-02 2.10810810e-01 3.96396406e-02
      2.16216221e-02 1.08108111e-02 1.80180185e-02 3.96396406e-02
      1.80180185e-03</_>
    <_>
      3.37790288e-02 2.18156222e-02 8.32746848e-02 2.93220729e-02
      4.22237851e-02 3.33098732e-02 9.21885967e-02 1.99390091e-02
      5.13722710e-02 2.04081628e-02 3.35444510e-02 3.28407213e-02
      1.92352794e-02 5.27797304e-02 9.85221658e-03 2.25193519e-02
      1.20103210e-01 3.77668291e-02 2.83837672e-02 2.55688466e-02
      4.52732816e-02 1.57166310e-02 9.28923264e-02 2.32230816e-02
      1.26671353e-02</_>
    <_>
      7.30747590e-03 2.30466556e-02 2.29342327e-01 1.34907253e-02
      2.24845409e-02 3.20404731e-02 6.80157393e-02 1.23664979e-02
      5.67734689e-02 2.58572232e-02 4.66554239e-02 3.93479466e-02
      1.12422705e-02 6.57672808e-02 6.18324894e-03 1.06801568e-02
      1.24789208e-01 1.85497459e-02 4.04721759e-02 3.37268133e-03
      2.86677908e-02 7.86958914e-03 8.03822353e-02 1.96739733e-02
      5.62113523e-03</_>
    <_>
      6.85714260e-02 6.98412675e-03 3.11111100e-02 2.53968239e-02
      4.95238081e-02 2.92063486e-02 7.99999982e-02 1.14285713e-02
      7.87301585e-02 1.90476179e-02 3.42857130e-02 1.11746028e-01
      1.39682535e-02 5.58730140e-02 2.60317456e-02 1.71428565e-02
      2.98412684e-02 9.77777764e-02 8.25396832e-03 1.58730149e-02
      8.06349143e-02 1.39682535e-02 6.53968230e-02 7.61904754e-03
      2.15873010e-02</_>
    <_>
      1.28700128e-02 2.70270277e-02 1.73745170e-01 5.01930490e-02
      1.41570140e-02 2.96010301e-02 1.27413124e-01 2.57400256e-02
      1.80180185e-02 1.28700128e-02 2.96010301e-02 2.57400260e-03
      2.57400256e-02 5.27670532e-02 2.57400260e-03 2.70270277e-02
      1.31274134e-01 1.41570140e-02 2.57400256e-02 1.80180185e-02
      1.80180185e-02 2.31660232e-02 1.05534106e-01 2.44530253e-02
      7.72200804e-03</_>
    <_>
      0. 2.65780725e-02 3.32225906e-03 1.32890362e-02 9.96677764e-03
      6.31229207e-02 7.97342211e-02 6.64451811e-03 3.32225906e-03
      3.32225896e-02 1.99335553e-02 3.35548162e-01 2.99003311e-02
      9.96677764e-03 4.65116277e-02 8.97009969e-02 6.64451811e-03
      3.98671106e-02 9.96677764e-03 1.66112948e-02 5.64784035e-02
      2.99003311e-02 6.64451811e-03 2.32558139e-02 3.98671106e-02</_>
    <_>
      2.27507763e-02 1.88210960e-02 1.08583249e-01 3.61944176e-02
      2.48190276e-02 4.05377448e-02 5.14994822e-02 3.55739407e-02
      4.69493270e-02 3.35056894e-02 3.78490165e-02 2.06825230e-02
      3.57807651e-02 4.92244065e-02 2.10961737e-02 3.20579112e-02
      9.96897668e-02 3.53671163e-02 2.46122032e-02 3.95036191e-02
      3.04033104e-02 3.80558446e-02 7.09410533e-02 1.84074454e-02
      2.70941053e-02</_>
    <_>
      1.99692771e-02 2.99539175e-02 3.07219662e-02 2.22734250e-02
      1.38248848e-02 5.99078350e-02 9.37019959e-02 1.38248848e-02
      6.75883293e-02 3.45622115e-02 5.99078350e-02 2.99539175e-02
      2.15053763e-02 3.60983089e-02 3.07219662e-02 3.91705073e-02
      1.29032254e-01 6.98924735e-02 2.38095243e-02 8.44854116e-03
      4.76190485e-02 2.15053763e-02 5.76036870e-02 2.76497696e-02
      1.07526882e-02</_>
    <_>
      3.35994363e-02 1.66681278e-02 2.56162826e-02 5.07062003e-02
      2.68444605e-02 2.12299321e-02 2.98271775e-02 1.63698569e-01
      2.11422052e-02 2.44758315e-02 1.29835950e-02 3.46521623e-02
      3.37748937e-02 1.93876661e-02 3.33362557e-02 2.02649347e-02
      1.85103957e-02 3.07044480e-02 4.69339415e-02 1.62294939e-01
      3.40380743e-02 4.50039469e-02 1.72822177e-02 1.62294935e-02
      6.07948042e-02</_>
    <_>
      2.38853507e-02 2.42038220e-02 3.08917202e-02 4.01273891e-02
      2.42038220e-02 4.14012745e-02 1.12420380e-01 3.69426757e-02
      4.20382172e-02 4.07643318e-02 5.15923575e-02 3.47133763e-02
      3.78980897e-02 2.07006373e-02 3.72611471e-02 3.47133763e-02
      1.24203824e-01 2.16560513e-02 1.56050958e-02 4.04458605e-02
      4.55414020e-02 3.37579623e-02 3.50318477e-02 1.87898092e-02
      3.12101915e-02</_>
    <_>
      1.23846186e-02 2.73203757e-02 5.47335204e-03 6.52163774e-02
      8.30279663e-03 2.98251305e-02 5.16721532e-02 8.31207335e-02
      3.41852568e-02 3.12166605e-02 3.12630460e-02 3.08455862e-02
      6.30363151e-02 8.72025546e-03 5.15793860e-02 3.71538550e-02
      3.61797847e-02 1.30803837e-02 8.21002759e-03 1.40869230e-01
      2.26819422e-02 5.22287674e-02 3.16341184e-02 2.50939280e-02
      9.87058729e-02</_>
    <_>
      2.59046592e-02 1.85605548e-02 2.83081848e-02 4.64681536e-02
      3.29817049e-02 3.55187617e-02 1.14701562e-01 3.20470035e-02
      5.60822524e-02 3.21805328e-02 3.92575786e-02 5.02069704e-02
      3.65869924e-02 2.72399522e-02 3.12458277e-02 3.15128863e-02
      7.47763366e-02 4.95393239e-02 3.51181738e-02 3.56522910e-02
      5.00734411e-02 3.52517031e-02 3.61864045e-02 1.45546803e-02
      3.00440639e-02</_>
    <_>
      6.71428591e-02 1.99999996e-02 7.42857158e-02 2.57142857e-02
      2.71428563e-02 5.28571419e-02 3.42857130e-02 2.14285720e-02
      5.28571419e-02 3.42857130e-02 1.42857144e-02 2.85714287e-02
      2.99999993e-02 3.85714285e-02 3.42857130e-02 1.57142859e-02
      1.24285713e-01 4.85714264e-02 2.14285720e-02 3.42857130e-02
      2.14285720e-02 2.99999993e-02 8.71428549e-02 2.57142857e-02
      3.57142836e-02</_>
    <_>
      4.02565785e-02 1.17230704e-02 4.09201495e-02 8.40521976e-03
      1.81375798e-02 5.86153492e-02 1.15239993e-01 5.75094018e-03
      1.13691658e-01 1.65892504e-02 2.01282892e-02 1.17009513e-01
      1.34925898e-02 2.85335090e-02 2.10130494e-02 1.76951997e-02
      5.97212985e-02 7.49834105e-02 9.51116998e-03 7.74165010e-03
      1.10373810e-01 1.63680594e-02 4.46803793e-02 1.70316305e-02
      1.23866396e-02</_>
    <_>
      3.99824269e-02 2.32864674e-02 4.83304029e-03 2.06502639e-02
      2.59226710e-02 2.98769772e-02 1.05887525e-01 8.34797882e-03
      6.89806715e-02 3.11950799e-02 3.29525471e-02 1.11599296e-01
      4.21792641e-02 1.75746921e-02 3.25131826e-02 2.15289984e-02
      6.81019351e-02 1.01054482e-01 7.90861156e-03 2.06502639e-02
      8.43585283e-02 3.55887525e-02 2.98769772e-02 2.06502639e-02
      1.44991213e-02</_>
    <_>
      9.06372219e-02 1.08120544e-02 5.75109245e-03 3.12859453e-02
      4.48585227e-02 4.71589603e-02 7.95951188e-02 3.12859453e-02
      8.07453394e-02 2.55348515e-02 2.27743275e-02 4.96894419e-02
      4.16379087e-02 1.72532778e-02 6.51023686e-02 1.88635830e-02
      3.54267322e-02 5.01495264e-02 3.68069927e-03 4.16379087e-02
      7.13135451e-02 3.74971256e-02 3.26662064e-02 5.75109245e-03
      5.88911884e-02</_>
    <_>
      4.52383719e-02 2.00672783e-02 3.01589146e-02 3.21308449e-02
      5.39380610e-02 3.05069014e-02 4.62823361e-02 2.49391031e-02
      4.46583927e-02 3.83946188e-02 3.82786244e-02 8.17770585e-02
      4.46583927e-02 4.24544737e-02 5.32420836e-02 3.20148468e-02
      3.43347639e-02 4.43104059e-02 1.87913235e-02 2.65630446e-02
      5.26621044e-02 4.07145359e-02 6.43776804e-02 2.21552029e-02
      3.73506546e-02</_>
    <_>
      1.90942883e-02 2.06150729e-02 4.13991213e-02 3.04156821e-02
      2.14599539e-02 4.76512350e-02 7.68840834e-02 1.42615750e-01
      2.60223057e-02 3.14295366e-02 2.94018257e-02 2.31497139e-02
      2.31497139e-02 2.78810412e-02 3.59918885e-02 2.28117611e-02
      5.93105778e-02 2.83879694e-02 1.74045283e-02 1.25887126e-01
      3.10915858e-02 2.34876648e-02 2.63602585e-02 1.90942883e-02
      4.90030423e-02</_>
    <_>
      2.84810141e-02 3.16455704e-03 4.62025315e-01 1.58227850e-02
      1.01265825e-01 0. 1.58227850e-02 6.32911408e-03 3.16455704e-03
      2.53164563e-02 3.16455704e-03 6.01265840e-02 2.53164563e-02
      8.54430422e-02 1.26582282e-02 3.79746854e-02 2.53164563e-02
      3.48101258e-02 3.16455704e-03 1.89873427e-02 3.16455704e-03
      9.49367136e-03 0. 3.16455704e-03 1.58227850e-02</_>
    <_>
      5.33099920e-02 1.59134306e-02 3.21451277e-02 5.69700785e-02
      3.62826213e-02 1.98917873e-02 5.77657521e-02 4.12157848e-02
      5.49013354e-02 2.72119660e-02 1.36855496e-02 4.15340513e-02
      4.36027981e-02 2.06874590e-02 7.27243796e-02 2.99172495e-02
      5.04455753e-02 2.86441743e-02 3.18268612e-02 5.04455753e-02
      5.55378720e-02 3.58052179e-02 6.77912161e-02 1.73456389e-02
      4.43984717e-02</_>
    <_>
      6.02582507e-02 2.00860836e-02 1.14777619e-02 3.29985656e-02
      6.16929717e-02 7.74748921e-02 5.73888086e-02 1.57819223e-02
      3.29985656e-02 3.44332866e-02 7.17360154e-02 3.73027250e-02
      3.44332866e-02 3.58680077e-02 3.87374461e-02 2.43902449e-02
      8.46484974e-02 5.59540875e-02 2.00860836e-02 1.86513625e-02
      4.30416055e-02 2.15208028e-02 6.02582507e-02 2.72596851e-02
      2.15208028e-02</_>
    <_>
      2.78662425e-02 2.30891723e-02 8.43949020e-02 1.51273888e-02
      3.74203846e-02 3.26433107e-02 6.21019118e-02 4.77707013e-03
      1.30573243e-01 2.78662425e-02 2.14968156e-02 6.05095550e-02
      1.35350320e-02 5.25477715e-02 2.62738857e-02 2.62738857e-02
      2.86624208e-02 8.12101960e-02 1.11464970e-02 5.57324849e-03
      9.79299396e-02 2.14968156e-02 7.16560483e-02 2.07006373e-02
      1.51273888e-02</_>
    <_>
      1.10062892e-02 3.45911942e-02 9.27672908e-02 2.67295595e-02
      1.25786159e-02 2.98742130e-02 8.80503133e-02 6.28930796e-03
      6.28930777e-02 2.04402506e-02 2.98742130e-02 3.30188684e-02
      2.98742130e-02 8.17610025e-02 7.86163509e-02 2.20125783e-02
      7.86163509e-02 2.67295595e-02 1.57232694e-02 1.57232699e-03
      5.97484261e-02 1.88679248e-02 8.96226391e-02 2.83018854e-02
      2.04402506e-02</_>
    <_>
      1.74825173e-02 3.84615362e-02 1.57342657e-01 2.44755242e-02
      3.49650346e-03 1.74825173e-02 1.11888111e-01 0. 1.74825173e-02
      1.74825173e-02 5.24475500e-02 5.59440553e-02 2.09790207e-02
      5.24475500e-02 1.74825173e-02 2.09790207e-02 1.04895100e-01
      4.89510484e-02 4.19580415e-02 3.49650346e-03 2.44755242e-02
      6.99300691e-03 1.04895100e-01 2.44755242e-02 1.39860138e-02</_>
    <_>
      6.91447631e-02 1.15731657e-02 8.97410735e-02 2.48136520e-02
      1.09160453e-01 2.72655934e-02 4.16830108e-02 1.23577872e-02
      7.32640252e-02 1.14750881e-02 2.77559813e-02 6.04158491e-02
      1.61828157e-02 7.01255351e-02 9.31737944e-03 1.05923889e-02
      5.35504110e-02 7.55198076e-02 3.11887003e-02 1.59866605e-02
      4.82542142e-02 1.17693208e-02 7.80698285e-02 8.92506819e-03
      1.18673984e-02</_>
    <_>
      4.95356023e-02 2.47678021e-03 3.35603714e-01 9.28792544e-03
      6.43962845e-02 5.57275536e-03 3.59133147e-02 6.19195029e-03
      4.33436548e-03 1.42414859e-02 2.47678021e-03 7.67801851e-02
      1.05263162e-02 1.13312691e-01 1.11455107e-02 1.79566573e-02
      9.78328213e-02 4.02476788e-02 8.04953557e-03 1.11455107e-02
      3.09597515e-03 6.19195029e-03 4.95356023e-02 3.09597515e-03
      2.10526325e-02</_>
    <_>
      5.23231477e-02 2.05106735e-02 4.89744656e-02 4.81372960e-02
      4.39514443e-02 5.65089993e-02 7.15780631e-02 2.97195464e-02
      4.39514443e-02 4.31142710e-02 3.18124741e-02 3.64169106e-02
      3.01381331e-02 3.13938893e-02 2.38593556e-02 4.47886139e-02
      6.19506054e-02 5.23231477e-02 1.63248219e-02 2.97195464e-02
      3.64169106e-02 3.55797410e-02 5.65089993e-02 1.75805781e-02
      3.64169106e-02</_>
    <_>
      5.19877672e-02 2.24260949e-02 5.04587144e-02 2.95616705e-02
      3.87359820e-02 4.33231369e-02 6.72782809e-02 1.37614673e-02
      8.40978548e-02 3.77166122e-02 2.90519856e-02 3.21100913e-02
      2.75229346e-02 3.92456651e-02 8.05300698e-02 2.95616705e-02
      4.89296615e-02 5.19877672e-02 3.61875631e-02 1.27420994e-02
      5.09683974e-02 1.58002041e-02 4.89296615e-02 2.59938836e-02
      3.10907215e-02</_>
    <_>
      2.25281101e-02 1.49253728e-02 5.92213217e-03 6.45832494e-02
      1.51254451e-02 3.19715105e-02 8.99523869e-02 5.45396358e-02
      6.52634948e-02 3.29318568e-02 2.08074916e-02 3.60929929e-02
      7.41066784e-02 1.06838467e-02 5.14985397e-02 3.18514667e-02
      4.95778471e-02 2.38085706e-02 8.04289524e-03 8.90720636e-02
      4.32555713e-02 5.65403551e-02 2.33684126e-02 1.54455602e-02
      6.81045204e-02</_>
    <_>
      2.40506325e-02 1.01265823e-02 8.86075944e-03 1.77215189e-02
      2.15189867e-02 5.69620244e-02 1.30379751e-01 1.51898731e-02
      7.72151873e-02 1.01265823e-02 4.17721532e-02 1.11392409e-01
      1.64556969e-02 2.65822783e-02 2.27848105e-02 2.27848105e-02
      1.49367094e-01 3.03797461e-02 1.51898731e-02 1.01265823e-02
      1.26582282e-02 1.51898731e-02 1.16455697e-01 1.64556969e-02
      2.02531647e-02</_>
    <_>
      5.08274250e-02 2.83687934e-02 1.41843967e-02 3.30969281e-02
      4.25531901e-02 6.85579181e-02 8.74704495e-02 1.53664304e-02
      7.32860491e-02 2.83687934e-02 4.60992903e-02 3.19148935e-02
      4.01891246e-02 2.60047279e-02 4.01891246e-02 3.19148935e-02
      7.56501183e-02 3.54609936e-02 2.60047279e-02 2.95508280e-02
      4.84633557e-02 3.30969281e-02 3.19148935e-02 1.53664304e-02
      4.60992903e-02</_>
    <_>
      1.95899773e-02 5.10250553e-02 1.09339409e-01 3.18906605e-02
      1.73120722e-02 2.87015941e-02 9.47608203e-02 2.18678806e-02
      4.92027327e-02 4.05466966e-02 4.37357612e-02 1.64009109e-02
      1.86788142e-02 3.64464670e-02 1.50341680e-02 3.23462412e-02
      1.22095667e-01 2.91571748e-02 3.78132127e-02 1.23006832e-02
      3.87243740e-02 2.64236890e-02 4.92027327e-02 3.73576283e-02
      2.00455580e-02</_>
    <_>
      8.46412629e-02 1.98991038e-02 3.64349782e-03 8.43609944e-02
      7.06278086e-02 1.96188353e-02 6.69843107e-02 6.86659217e-02
      5.43721989e-02 1.40134534e-02 1.82174891e-02 2.49439478e-02
      6.02578521e-02 1.12107629e-02 2.97085214e-02 1.68161448e-02
      2.97085214e-02 1.76569521e-02 1.51345301e-02 9.58520249e-02
      3.08295973e-02 5.74551597e-02 2.35426016e-02 2.27017943e-02
      5.91367744e-02</_>
    <_>
      2.93333326e-02 3.19999978e-02 1.85333326e-01 3.19999978e-02
      5.20000011e-02 2.26666667e-02 5.73333316e-02 1.26666669e-02
      5.59999980e-02 1.06666666e-02 3.06666661e-02 2.26666667e-02
      1.66666657e-02 6.26666695e-02 6.00000005e-03 2.19999999e-02
      1.00000001e-01 4.66666669e-02 5.79999983e-02 1.33333337e-02
      2.73333322e-02 2.13333331e-02 4.66666669e-02 2.53333338e-02
      1.06666666e-02</_>
    <_>
      7.08196685e-03 4.59016394e-03 1.24590155e-02 5.24590164e-03
      4.72131139e-03 2.59672124e-02 2.88524568e-01 2.09836056e-03
      1.02163933e-01 4.06557368e-03 2.38688514e-02 1.39016388e-02
      7.99999945e-03 1.16721308e-02 9.83606558e-03 2.88524572e-03
      2.97180325e-01 1.42950816e-02 2.75409827e-03 2.09836056e-03
      2.63606552e-02 9.44262277e-03 1.10295080e-01 4.98360628e-03
      5.50819654e-03</_>
    <_>
      8.49534385e-03 1.51935956e-02 2.10749879e-02 2.92435866e-02
      1.07825520e-02 1.89511515e-02 5.32592721e-02 1.77095249e-01
      2.58127749e-02 2.14017313e-02 2.38523111e-02 2.30354518e-02
      2.59761475e-02 1.15994113e-02 5.29325269e-02 1.56837106e-02
      4.49272990e-02 1.87877789e-02 1.65005717e-02 2.03561500e-01
      2.27087066e-02 2.61395201e-02 2.04214994e-02 1.43767353e-02
      9.81865674e-02</_>
    <_>
      3.32155451e-02 2.72084791e-02 8.44522938e-02 3.35689038e-02
      1.80212017e-02 4.84098941e-02 6.21908121e-02 2.47349814e-02
      6.00706711e-02 4.48763222e-02 4.02826853e-02 4.55830395e-02
      2.72084791e-02 4.73498218e-02 2.86219083e-02 4.31095399e-02
      7.98586532e-02 2.75618359e-02 2.65017655e-02 2.61484087e-02
      3.53356898e-02 2.50883382e-02 6.46643117e-02 1.94346290e-02
      2.65017655e-02</_>
    <_>
      9.94475186e-02 2.48618796e-02 1.10497242e-02 3.17679569e-02
      5.52486219e-02 2.20994484e-02 4.41988967e-02 1.65745858e-02
      5.66298366e-02 3.45303863e-02 2.20994484e-02 4.28176820e-02
      3.86740342e-02 2.90055256e-02 8.97790119e-02 1.93370171e-02
      5.52486209e-03 8.56353641e-02 2.07182337e-02 2.62430944e-02
      1.02209948e-01 3.86740342e-02 3.45303863e-02 8.28729291e-03
      4.00552489e-02</_>
    <_>
      1.22977346e-02 1.87702253e-02 3.17152083e-01 9.70873795e-03
      1.48867313e-02 2.71844640e-02 6.86084107e-02 8.41423869e-03
      1.68284774e-02 2.97734626e-02 3.04207113e-02 4.07766961e-02
      1.87702253e-02 6.01941720e-02 1.16504850e-02 3.17152105e-02
      9.77346227e-02 3.30097079e-02 2.78317146e-02 1.03559867e-02
      2.52427179e-02 1.42394817e-02 2.97734626e-02 2.65372153e-02
      1.81229766e-02</_>
    <_>
      2.73368601e-02 5.29100513e-03 1.94003526e-02 1.05820103e-02
      1.49911810e-02 5.64373881e-02 8.99470896e-02 7.93650746e-03
      9.96472612e-02 3.17460299e-02 3.79188694e-02 7.49559030e-02
      7.93650746e-03 3.08641959e-02 1.32275131e-02 2.29276884e-02
      1.02292769e-01 3.79188694e-02 1.85185187e-02 1.05820103e-02
      9.43562612e-02 1.14638442e-02 1.53439149e-01 1.32275131e-02
      7.05467351e-03</_>
    <_>
      3.06490399e-02 2.16346160e-02 1.32211540e-02 2.10336540e-02
      3.42548080e-02 3.12500000e-02 1.79687500e-01 6.37019277e-02
      3.84615399e-02 2.58413479e-02 3.72596160e-02 2.58413479e-02
      9.61538497e-03 2.28365399e-02 2.28365399e-02 2.52403859e-02
      1.77283660e-01 2.22355779e-02 2.28365399e-02 2.70432699e-02
      5.52884638e-02 1.02163469e-02 3.30528840e-02 2.52403859e-02
      2.34375000e-02</_>
    <_>
      3.08943074e-02 2.60162596e-02 2.43902430e-02 2.92682927e-02
      1.05691053e-01 3.41463424e-02 1.23577230e-01 6.99186996e-02
      4.55284528e-02 2.27642264e-02 5.69105670e-02 6.50406489e-03
      2.92682927e-02 2.27642264e-02 1.46341464e-02 2.27642264e-02
      9.75609720e-02 3.08943074e-02 3.25203240e-02 4.06504050e-02
      1.46341464e-02 6.50406489e-03 3.41463424e-02 2.76422761e-02
      5.04065044e-02</_>
    <_>
      5.47703207e-02 2.70906966e-02 1.47232041e-02 4.00471166e-02
      3.94581892e-02 6.30153120e-02 5.30035347e-02 3.76914032e-02
      6.18374571e-02 4.71142530e-02 5.35924621e-02 5.18256798e-02
      3.82803306e-02 3.12131941e-02 2.00235583e-02 4.71142530e-02
      4.06360440e-02 6.06596023e-02 1.35453483e-02 3.12131941e-02
      3.18021215e-02 4.41696122e-02 3.59246172e-02 2.12014150e-02
      4.00471166e-02</_>
    <_>
      3.85174416e-02 2.83430237e-02 8.13953504e-02 3.27034891e-02
      4.65116277e-02 6.03197664e-02 8.93895328e-02 1.74418613e-02
      4.50581387e-02 2.54360456e-02 4.43313941e-02 4.65116277e-02
      2.54360456e-02 4.14244197e-02 3.85174416e-02 1.59883723e-02
      6.54069781e-02 3.99709307e-02 2.68895347e-02 1.01744188e-02
      7.26744160e-02 1.30813951e-02 5.30523248e-02 1.74418613e-02
      2.39825584e-02</_>
    <_>
      3.95256951e-02 1.38339922e-02 6.32411093e-02 1.77865624e-02
      3.16205546e-02 5.92885390e-02 1.00790516e-01 9.88142379e-03
      5.92885390e-02 2.56917011e-02 2.76679844e-02 7.70751014e-02
      1.58102773e-02 4.54545468e-02 2.56917011e-02 2.37154160e-02
      9.09090936e-02 3.16205546e-02 1.97628476e-02 1.58102773e-02
      3.95256951e-02 1.18577080e-02 9.28853825e-02 1.97628476e-02
      4.15019765e-02</_>
    <_>
      8.69565178e-03 2.95652151e-02 1.18260860e-01 4.81159389e-02
      1.50724631e-02 6.95652142e-02 5.10144904e-02 1.27536226e-02
      2.08695643e-02 3.36231887e-02 1.12463765e-01 7.53623154e-03
      2.08695643e-02 7.82608688e-02 6.95652142e-03 3.59420255e-02
      1.08985499e-01 1.56521723e-02 6.78260848e-02 1.68115944e-02
      1.27536226e-02 1.39130428e-02 3.53623182e-02 5.04347794e-02
      8.69565178e-03</_>
    <_>
      2.52886210e-02 3.02363932e-02 1.86915889e-01 3.35349105e-02
      1.70423314e-02 3.46344151e-02 5.82737774e-02 2.58383732e-02
      2.91368887e-02 2.19901055e-02 2.47388668e-02 4.78284769e-02
      3.13358977e-02 4.34304550e-02 4.72787246e-02 1.70423314e-02
      5.60747683e-02 3.73831764e-02 1.20945573e-02 3.95821892e-02
      6.87190741e-02 2.91368887e-02 2.14403514e-02 1.81418359e-02
      4.28807028e-02</_>
    <_>
      4.67344299e-02 1.90442801e-02 2.09136568e-02 5.56139722e-02
      4.06589545e-02 2.90921833e-02 7.55929425e-02 4.47482169e-02
      5.80675304e-02 3.10783964e-02 2.61712819e-02 3.66865285e-02
      4.53323983e-02 2.28998717e-02 3.57518382e-02 3.31814438e-02
      5.72496764e-02 4.01916094e-02 4.04252820e-02 4.63839211e-02
      4.95384969e-02 4.01916094e-02 4.53323983e-02 1.63570512e-02
      4.27620038e-02</_>
    <_>
      1.36186769e-02 4.08560298e-02 1.16731515e-02 5.83657576e-03
      5.83657576e-03 3.69649790e-02 7.00389072e-02 1.94552529e-03
      3.30739282e-02 3.11284047e-02 3.30739282e-02 4.10505831e-01
      1.75097268e-02 7.78210117e-03 3.89105058e-03 2.72373538e-02
      3.69649790e-02 6.22568093e-02 5.83657576e-03 5.83657576e-03
      5.25291823e-02 1.16731515e-02 1.94552522e-02 3.50194536e-02
      1.94552522e-02</_>
    <_>
      1.91304348e-02 2.60869563e-02 1.68695658e-01 1.39130438e-02
      2.08695661e-02 2.26086956e-02 6.26086965e-02 8.69565271e-03
      1.40869573e-01 1.04347831e-02 4.86956537e-02 2.26086956e-02
      2.08695661e-02 5.56521751e-02 8.69565271e-03 8.69565271e-03
      9.04347822e-02 5.39130457e-02 2.43478268e-02 1.39130438e-02
      3.30434777e-02 2.26086956e-02 7.99999982e-02 1.73913054e-02
      5.21739153e-03</_>
    <_>
      2.23607030e-02 3.29912007e-02 9.16422252e-03 4.94868048e-02
      2.12609973e-02 5.64516112e-02 8.50439891e-02 2.27272734e-02
      5.97507320e-02 4.91202362e-02 4.87536639e-02 2.60263924e-02
      5.79178892e-02 2.89589446e-02 4.21554260e-02 3.73900309e-02
      6.19501472e-02 3.92228737e-02 2.85923760e-02 3.59237529e-02
      4.72873896e-02 4.94868048e-02 3.66568901e-02 3.15249264e-02
      1.97947212e-02</_>
    <_>
      2.01879572e-02 1.98398884e-02 6.75252378e-02 2.92377304e-02
      2.19282974e-02 3.89836393e-02 5.95196672e-02 3.34145501e-02
      5.81273921e-02 4.45527323e-02 3.02819349e-02 2.88896617e-02
      3.75913680e-02 4.83814813e-02 5.36025055e-02 3.20222750e-02
      8.98016021e-02 2.64531840e-02 2.36686394e-02 3.68952304e-02
      3.20222750e-02 2.61051171e-02 8.10998976e-02 2.12321617e-02
      3.86355743e-02</_>
    <_>
      6.45906702e-02 1.87426638e-02 2.53447779e-02 3.46610919e-02
      6.59110919e-02 3.32673118e-02 8.31499398e-02 2.86091547e-02
      7.64011145e-02 2.80589797e-02 2.85724774e-02 3.41842733e-02
      4.44542244e-02 3.76320444e-02 3.95026430e-02 2.57115606e-02
      4.09697779e-02 5.25601543e-02 1.45613262e-02 3.41109149e-02
      4.56646122e-02 3.94659638e-02 4.95525226e-02 1.89994127e-02
      3.53213027e-02</_>
    <_>
      5.48542254e-02 2.38954015e-02 6.64262101e-02 2.50976868e-02
      3.38142477e-02 2.87045389e-02 5.72587922e-02 8.50616172e-02
      4.17793803e-02 2.23925468e-02 3.44153903e-02 4.28313799e-02
      1.57799814e-02 3.48662473e-02 1.15719866e-02 2.13405471e-02
      7.43913427e-02 2.91553959e-02 4.40336652e-02 8.80673304e-02
      4.97445166e-02 1.89359784e-02 3.47159617e-02 2.17914041e-02
      3.90742421e-02</_>
    <_>
      4.51306440e-02 2.85035633e-02 7.12589081e-03 2.85035633e-02
      3.08788605e-02 3.80047522e-02 8.55106935e-02 1.42517816e-02
      8.07600990e-02 2.85035633e-02 3.56294550e-02 4.03800495e-02
      2.61282679e-02 3.80047522e-02 4.27553467e-02 3.32541578e-02
      5.22565357e-02 4.27553467e-02 2.37529702e-03 4.27553467e-02
      1.30641341e-01 2.13776734e-02 4.75059412e-02 1.66270789e-02
      4.03800495e-02</_>
    <_>
      3.53874303e-02 2.63226703e-02 1.38586247e-02 6.61553219e-02
      3.19881476e-02 3.18138227e-02 4.69798669e-02 7.06005394e-02
      3.84380743e-02 3.56489159e-02 2.30105463e-02 4.23603244e-02
      5.93567528e-02 1.76065546e-02 4.76771556e-02 3.69563326e-02
      3.32955644e-02 3.54745947e-02 2.37078369e-02 7.41741508e-02
      4.57596108e-02 5.73520437e-02 2.87631843e-02 2.87631843e-02
      4.85487692e-02</_>
    <_>
      4.83180434e-02 1.95718650e-02 2.07951069e-02 3.24159004e-02
      2.20183488e-02 4.64831777e-02 5.01529053e-02 2.32415888e-02
      6.48318008e-02 5.07645234e-02 4.15902138e-02 1.07033640e-01
      3.24159004e-02 2.87461765e-02 5.01529053e-02 4.34250757e-02
      2.38532107e-02 5.74923530e-02 1.65137611e-02 2.50764526e-02
      6.48318008e-02 2.38532107e-02 4.34250757e-02 2.26299688e-02
      4.03669700e-02</_>
    <_>
      1.38740661e-02 1.06723588e-02 2.13447168e-01 1.94770545e-02
      2.37459969e-02 4.00213450e-02 8.24439675e-02 2.42796149e-02
      4.13553901e-02 1.92102455e-02 5.30949831e-02 3.22838835e-02
      2.64140870e-02 4.34898585e-02 1.60085373e-02 2.29455698e-02
      8.40448216e-02 3.44183557e-02 1.70757733e-02 2.00106725e-02
      3.41515467e-02 2.96157952e-02 6.85698986e-02 1.09391669e-02
      1.84098184e-02</_>
    <_>
      4.32276651e-02 2.23342925e-02 5.83573468e-02 2.59365980e-02
      2.88184434e-02 5.90778068e-02 1.14553310e-01 1.94524489e-02
      8.42939466e-02 2.52161380e-02 3.02593652e-02 6.41210377e-02
      1.94524489e-02 2.08933707e-02 4.17867415e-02 2.66570598e-02
      5.61959632e-02 5.04322760e-02 1.36887608e-02 2.01729108e-02
      6.48414940e-02 3.17002870e-02 3.09798270e-02 1.72910653e-02
      3.02593652e-02</_>
    <_>
      2.71392073e-02 3.67177501e-02 1.29629627e-01 2.49042138e-02
      1.30906766e-02 4.08684537e-02 4.98084277e-02 5.42784156e-03
      3.03320549e-02 3.92720290e-02 2.52234992e-02 9.25925896e-02
      2.45849285e-02 8.42911825e-02 2.96934862e-02 2.93742009e-02
      7.34355003e-02 4.34227325e-02 2.01149415e-02 1.50063857e-02
      4.59770113e-02 2.13920809e-02 4.91698571e-02 2.84163468e-02
      2.01149415e-02</_>
    <_>
      2.79134680e-02 1.67480800e-02 4.11723629e-02 2.30286103e-02
      2.02372633e-02 1.74459163e-02 1.00488484e-01 1.11653870e-02
      9.63014662e-02 3.14026512e-02 3.48918349e-03 9.28122774e-02
      3.00069768e-02 2.79134680e-02 7.18771815e-02 2.37264466e-02
      2.02372633e-02 6.97836652e-02 1.53524075e-02 2.23307740e-02
      1.26308441e-01 2.37264466e-02 2.79134680e-02 1.60502438e-02
      4.25680391e-02</_>
    <_>
      1.28846327e-02 1.17778489e-02 2.98100710e-02 5.75005449e-02
      1.72595605e-02 7.85189960e-03 3.94892059e-02 2.46687472e-01
      1.80217791e-02 1.13810776e-02 8.64544231e-03 2.48608682e-02
      3.12196538e-02 1.08172446e-02 2.13838965e-02 1.24460962e-02
      3.64403315e-02 1.47223119e-02 3.35376337e-02 2.12262318e-01
      2.32320167e-02 4.15461548e-02 1.82932559e-02 1.15690222e-02
      4.63596210e-02</_>
    <_>
      4.86634672e-02 1.43934200e-02 6.37422875e-02 2.74160393e-02
      2.67306380e-02 4.86634672e-02 4.59218659e-02 1.98766273e-02
      5.27758747e-02 4.59218659e-02 3.76970544e-02 7.26525038e-02
      2.74160393e-02 4.24948595e-02 4.93488684e-02 3.49554494e-02
      5.41466773e-02 3.83824557e-02 2.05620285e-02 2.67306380e-02
      6.23714887e-02 3.28992456e-02 4.66072671e-02 1.64496228e-02
      4.31802608e-02</_>
    <_>
      2.36243159e-02 1.32526644e-02 4.92653400e-02 2.93863434e-02
      3.94698940e-02 1.46931717e-02 8.18208009e-02 9.44972634e-02
      4.72486317e-02 1.67098809e-02 3.14030536e-02 2.07433011e-02
      1.87265910e-02 2.04552002e-02 1.49812736e-02 2.44886205e-02
      1.11495242e-01 3.37078646e-02 3.54364738e-02 1.09190434e-01
      4.69605289e-02 2.24719103e-02 4.84010354e-02 1.52693745e-02
      3.63007784e-02</_>
    <_>
      3.32417972e-02 1.79216638e-02 3.33863273e-02 3.30972672e-02
      2.78942026e-02 2.71715559e-02 9.84246209e-02 2.93394979e-02
      4.42260429e-02 3.58433276e-02 2.39919052e-02 8.23818445e-02
      3.42535041e-02 1.79216638e-02 5.50657585e-02 3.49761508e-02
      6.99523017e-02 4.55268063e-02 4.04682755e-02 2.86168512e-02
      6.47492409e-02 3.10738534e-02 3.15074399e-02 1.56091917e-02
      4.33588661e-02</_>
    <_>
      6.06279299e-02 3.57271731e-02 1.51569825e-02 5.48538417e-02
      3.17574888e-02 3.39227691e-02 9.96030271e-02 3.10357269e-02
      2.63442788e-02 4.29447852e-02 4.15012613e-02 7.93937221e-03
      7.43413940e-02 1.22699384e-02 2.23745927e-02 3.35618891e-02
      8.26416463e-02 3.03139649e-02 5.59364855e-02 5.34103215e-02
      7.93937221e-03 7.21761063e-02 7.21761072e-03 4.00577411e-02
      2.63442788e-02</_>
    <_>
      4.27519791e-02 1.27406567e-02 4.24688542e-03 1.64212901e-02
      4.10532281e-02 6.82332963e-02 1.61098525e-01 7.92751927e-03
      9.68289897e-02 1.67044159e-02 3.00113242e-02 1.24009058e-01
      2.54813135e-02 1.58550385e-02 1.98187996e-02 1.98187996e-02
      4.55832370e-02 8.40883330e-02 5.66251390e-03 1.44394105e-02
      6.14382774e-02 1.89694222e-02 3.96375991e-02 1.18912794e-02
      1.52887879e-02</_>
    <_>
      8.20974559e-02 2.70127114e-02 6.46186471e-02 4.71398309e-02
      1.30826265e-01 2.91313566e-02 4.07838970e-02 3.17796618e-02
      4.13135588e-02 1.90677959e-02 3.70762721e-02 9.00423713e-03
      2.11864412e-02 5.40254228e-02 1.69491526e-02 1.48305083e-02
      7.15042353e-02 4.87288125e-02 2.06567794e-02 2.86016949e-02
      2.01271195e-02 1.69491526e-02 8.42161030e-02 1.53601691e-02
      2.70127114e-02</_>
    <_>
      2.83778068e-02 1.56713258e-02 4.53197807e-02 4.73316386e-02
      1.52477771e-02 1.67301986e-02 4.66963165e-02 6.08852208e-02
      3.51545960e-02 4.35196944e-02 2.65777223e-02 2.22363416e-02
      5.32613322e-02 1.86361708e-02 9.24396440e-02 4.48962301e-02
      3.85429896e-02 3.46251614e-02 3.18720900e-02 7.29563758e-02
      2.59423982e-02 5.31554446e-02 3.60016935e-02 1.45065654e-02
      7.94155076e-02</_>
    <_>
      4.28134538e-02 4.17940840e-02 2.85423025e-02 3.05810384e-02
      4.28134538e-02 3.16004083e-02 9.48012173e-02 1.32517833e-02
      8.35881680e-02 1.83486231e-02 2.14067269e-02 5.81039712e-02
      1.52905192e-02 5.30071333e-02 4.79102954e-02 2.44648308e-02
      4.89296615e-02 7.54332244e-02 3.26197743e-02 2.54841987e-02
      5.60652390e-02 3.36391404e-02 2.85423025e-02 2.85423025e-02
      2.24260949e-02</_>
    <_>
      3.33079547e-02 4.72021326e-02 1.46555007e-02 4.14921977e-02
      3.99695486e-02 4.47278284e-02 5.61476983e-02 2.16977540e-02
      8.69813487e-02 5.27217351e-02 2.89303400e-02 2.26494111e-02
      6.62352517e-02 2.60753706e-02 6.54739290e-02 3.19756381e-02
      3.25466320e-02 2.75980216e-02 3.12143136e-02 1.38941761e-02
      4.51084897e-02 4.58698124e-02 4.30148467e-02 5.15797511e-02
      2.89303400e-02</_>
    <_>
      1.39296185e-02 1.39296185e-02 2.71994144e-01 1.46627566e-03
      8.06451589e-03 2.78592370e-02 5.57184741e-02 1.46627566e-03
      2.85923760e-02 1.02639291e-02 2.05278583e-02 8.57771263e-02
      6.59824070e-03 9.38416421e-02 6.59824070e-03 1.02639291e-02
      1.11436948e-01 5.05865104e-02 2.93255132e-03 1.46627566e-03
      1.09237537e-01 8.06451589e-03 4.39882688e-02 1.09970672e-02
      4.39882698e-03</_>
    <_>
      2.19047628e-02 2.12698411e-02 4.62433882e-02 4.46560867e-02
      3.43915336e-02 3.98941822e-02 8.77248719e-02 9.41798985e-02
      3.46031748e-02 2.47619059e-02 3.85185182e-02 1.56613756e-02
      3.03703714e-02 2.03174613e-02 1.46031752e-02 2.70899478e-02
      1.13650799e-01 2.17989422e-02 4.26455028e-02 6.29629642e-02
      2.79365089e-02 3.32275145e-02 5.96825406e-02 2.07407419e-02
      2.11640224e-02</_>
    <_>
      6.61000935e-03 3.11614722e-02 4.91029248e-02 9.44287051e-03
      3.49386223e-02 3.87157686e-02 1.48253068e-01 1.88857410e-03
      1.02927290e-01 1.51085928e-02 6.61000907e-02 6.79886639e-02
      1.32200187e-02 4.34372053e-02 1.32200187e-02 1.22757312e-02
      1.29367322e-01 1.51085928e-02 3.11614722e-02 9.44287051e-04
      6.98772445e-02 4.72143525e-03 6.13786578e-02 2.73843240e-02
      5.66572230e-03</_>
    <_>
      3.09719071e-02 2.18112022e-02 8.59361365e-02 2.59117074e-02
      3.57703716e-02 4.03943472e-02 6.72657490e-02 2.80928276e-02
      5.65346368e-02 2.39923224e-02 3.79514918e-02 7.55540058e-02
      1.91066135e-02 4.78101559e-02 2.30326299e-02 2.38178317e-02
      7.08427802e-02 5.54876961e-02 2.02407949e-02 2.47775260e-02
      5.33065759e-02 2.08515096e-02 6.47356436e-02 2.46902797e-02
      2.11132430e-02</_>
    <_>
      2.22634505e-02 3.44553404e-02 2.21751034e-02 8.54315758e-02
      2.33236160e-02 3.26884016e-02 9.18809101e-02 3.86959985e-02
      4.44385558e-02 2.39420440e-02 3.47203836e-02 5.98109365e-02
      4.09930199e-02 2.43837796e-02 1.32520543e-02 3.05680707e-02
      7.19144791e-02 2.80943550e-02 3.72824445e-02 3.21583189e-02
      3.92260812e-02 3.79008763e-02 8.06608349e-02 3.46320346e-02
      1.51073420e-02</_>
    <_>
      5.96780553e-02 1.26946736e-02 6.08559102e-02 2.12014131e-02
      7.57754222e-02 3.65135446e-02 5.57518676e-02 4.50202860e-02
      5.87619431e-02 2.01544315e-02 3.53356898e-02 3.93927507e-02
      3.91310044e-02 4.10940982e-02 4.99934591e-02 2.00235583e-02
      5.36579005e-02 4.72451262e-02 2.69598234e-02 3.58591825e-02
      4.51511592e-02 3.86075117e-02 2.10705418e-02 1.25638004e-02
      4.75068726e-02</_>
    <_>
      1.28205130e-02 3.84615399e-02 1.02564104e-01 5.38461544e-02
      1.28205130e-02 7.69230817e-03 3.07692327e-02 4.87179495e-02
      3.07692327e-02 5.64102568e-02 1.53846163e-02 2.30769236e-02
      5.64102568e-02 1.02564106e-02 1.66666672e-01 3.84615399e-02
      1.79487187e-02 7.69230817e-03 2.56410260e-02 4.61538471e-02
      1.28205130e-02 7.69230798e-02 3.58974375e-02 3.33333351e-02
      3.84615399e-02</_>
    <_>
      7.99803734e-02 9.32286587e-03 1.52109908e-02 2.89499518e-02
      4.12168801e-02 6.42787069e-02 7.26202130e-02 1.61923449e-02
      1.01079486e-01 2.50245333e-02 6.91854730e-02 7.55642802e-02
      2.60058884e-02 6.62414134e-02 1.22669283e-02 2.01177634e-02
      1.81550533e-02 6.23159967e-02 1.12855742e-02 1.96270850e-02
      7.60549530e-02 2.40431800e-02 4.26889099e-02 9.32286587e-03
      1.32482825e-02</_>
    <_>
      2.61179265e-02 3.12623642e-02 2.53264736e-02 6.33161813e-02
      5.34230322e-02 2.05777604e-02 4.98614945e-02 7.43965134e-02
      2.96794605e-02 2.05777604e-02 4.51127812e-02 4.35298756e-02
      3.48239020e-02 2.29521170e-02 1.74119510e-02 2.96794605e-02
      5.57973869e-02 2.49307472e-02 3.91768888e-02 9.10170153e-02
      4.11555208e-02 4.66956869e-02 4.03640680e-02 2.73051038e-02
      4.55085076e-02</_>
    <_>
      9.18484479e-03 9.18484479e-03 1.83696896e-01 3.55912745e-02
      2.98507456e-02 3.67393792e-02 8.03673938e-02 1.49253728e-02
      2.18140073e-02 2.18140073e-02 5.85533865e-02 1.72215849e-02
      1.60734784e-02 4.59242240e-02 1.26291616e-02 2.18140073e-02
      1.20551087e-01 1.83696896e-02 1.19402982e-01 2.41102166e-02
      3.09988521e-02 1.14810560e-02 3.32950614e-02 1.95177943e-02
      6.88863359e-03</_>
    <_>
      7.64419734e-02 9.03405156e-03 1.09451013e-02 1.71994455e-02
      4.49965261e-02 2.90132053e-02 5.55941649e-02 2.36275196e-02
      9.69423279e-02 3.04030590e-02 1.59833226e-02 4.96872850e-02
      4.41278666e-02 3.89159173e-02 6.72341958e-02 2.06740797e-02
      1.09451013e-02 7.14037567e-02 2.25851289e-03 4.63863797e-02
      8.07852745e-02 3.75260599e-02 5.12508713e-02 9.38151497e-03
      5.92425317e-02</_>
    <_>
      3.18181813e-02 3.18181813e-02 5.45454547e-02 1.81818176e-02
      4.99999970e-02 4.54545431e-02 5.90909086e-02 2.72727273e-02
      1.31818175e-01 9.09090880e-03 8.63636360e-02 2.27272715e-02
      3.63636352e-02 4.54545431e-02 7.27272704e-02 9.09090880e-03
      7.27272704e-02 2.72727273e-02 4.09090891e-02 9.09090880e-03
      3.18181813e-02 3.18181813e-02 4.09090891e-02 1.36363637e-02 0.</_>
    <_>
      6.25000009e-03 1.87500007e-02 2.50000004e-02 3.12500000e-02
      6.87500015e-02 5.00000007e-02 8.12500045e-02 1.81250006e-01
      6.25000009e-03 1.87500007e-02 4.37499993e-02 0. 3.75000015e-02
      1.25000002e-02 2.50000004e-02 1.87500007e-02 4.37499993e-02
      6.25000009e-03 6.25000000e-02 1.06250003e-01 6.25000009e-03
      4.37499993e-02 1.87500007e-02 3.75000015e-02 5.00000007e-02</_>
    <_>
      4.73705344e-02 2.24809311e-02 2.20794864e-02 3.09112798e-02
      2.64953822e-02 3.57286222e-02 1.23645119e-01 1.52549176e-02
      1.22842230e-01 1.80650335e-02 3.81372944e-02 5.53994365e-02
      2.60939375e-02 2.52910480e-02 1.28462464e-02 2.28823759e-02
      6.30268976e-02 4.05459665e-02 3.17141712e-02 2.04737056e-02
      4.69690897e-02 3.25170606e-02 7.98875913e-02 1.72621440e-02
      2.20794864e-02</_>
    <_>
      6.98590139e-03 1.22253280e-02 1.62580982e-02 5.09335734e-02
      9.30395070e-03 2.12117378e-02 5.29975891e-02 2.74990499e-01
      3.03251632e-02 1.01295570e-02 1.83538683e-02 3.80731635e-02
      3.82954404e-02 1.12727052e-02 8.31957348e-03 1.17490161e-02
      4.99809496e-02 1.33367209e-02 3.41674089e-02 1.57913134e-01
      1.69566888e-02 4.74088676e-02 2.54985411e-02 1.31779509e-02
      3.01346388e-02</_>
    <_>
      5.26649728e-02 3.80710661e-02 1.77664980e-02 1.64974611e-02
      2.79187821e-02 2.60152277e-02 1.62436545e-01 2.53807101e-03
      4.82233502e-02 2.60152277e-02 3.29949223e-02 8.81979689e-02
      1.33248726e-02 2.53807101e-02 4.31472063e-02 2.98223346e-02
      9.13705528e-02 6.21827394e-02 9.51776654e-03 9.51776654e-03
      5.20304553e-02 1.64974611e-02 3.99746187e-02 4.18781713e-02
      2.60152277e-02</_>
    <_>
      7.30994195e-02 5.39811095e-03 2.22672075e-02 2.09176801e-02
      5.57804778e-02 3.28385085e-02 1.02339186e-01 1.07962219e-02
      6.72514662e-02 1.52946478e-02 4.29599658e-02 1.09536663e-01
      1.75438598e-02 4.81331535e-02 2.60908697e-02 1.39451195e-02
      3.39631140e-02 7.96221346e-02 5.39811095e-03 1.68690961e-02
      8.54700878e-02 1.57444905e-02 6.95006773e-02 7.42240250e-03
      2.18173638e-02</_>
    <_>
      1.53398579e-02 2.35387478e-02 5.15736602e-02 1.98360234e-02
      1.85136218e-02 6.77069575e-02 1.13462053e-01 2.48611476e-02
      6.32107928e-02 3.41179594e-02 2.93573141e-02 8.54271352e-02
      1.58688184e-02 2.40677074e-02 2.08939444e-02 2.69769914e-02
      1.07379004e-01 5.34250215e-02 2.14229040e-02 1.77201796e-02
      5.95080666e-02 1.82491411e-02 4.65485342e-02 2.35387478e-02
      1.74557008e-02</_>
    <_>
      2.26628892e-02 8.49858299e-03 1.84135973e-01 7.79036805e-03
      1.27478754e-02 3.25779021e-02 9.56090614e-02 1.41643058e-03
      2.62039658e-02 9.91501380e-03 3.89518403e-02 2.43626058e-01
      1.06232297e-02 6.79886639e-02 1.27478754e-02 4.24929149e-03
      5.09915017e-02 1.91218127e-02 1.13314446e-02 5.66572230e-03
      7.15297461e-02 8.49858299e-03 3.32861170e-02 1.62889510e-02
      3.54107656e-03</_>
    <_>
      8.07660297e-02 2.33139042e-02 4.41298932e-02 2.83097420e-02
      5.74521236e-02 2.08159871e-02 2.99750213e-02 2.49791835e-02
      8.07660297e-02 3.08076609e-02 3.16402987e-02 2.99750213e-02
      2.24812645e-02 7.99333900e-02 2.58118231e-02 3.58034968e-02
      2.16486268e-02 7.41049126e-02 3.41382176e-02 1.83180682e-02
      5.49542047e-02 2.83097420e-02 7.82681108e-02 2.83097420e-02
      1.49875106e-02</_>
    <_>
      2.97324099e-02 2.03171466e-02 3.46878101e-03 3.02279498e-02
      1.33795841e-02 1.98216066e-02 5.00495546e-02 3.27056497e-02
      5.30227982e-02 4.90584746e-02 1.33795841e-02 1.12983152e-01
      6.64023831e-02 5.45094162e-03 9.16749313e-02 3.51833515e-02
      1.83349848e-02 9.76214111e-02 3.96432122e-03 5.45094162e-02
      5.84737398e-02 5.45094162e-02 5.94648160e-03 1.53617449e-02
      6.44202232e-02</_>
    <_>
      2.00610552e-02 2.39860453e-02 2.66027041e-02 3.96860018e-02
      1.70082860e-02 8.80941972e-02 1.02485828e-01 3.88137810e-02
      4.31748815e-02 3.18360217e-02 2.87832525e-02 5.32054082e-02
      3.61971222e-02 2.74749231e-02 3.75054516e-02 3.44526805e-02
      6.80331439e-02 3.00915837e-02 2.79110335e-02 4.66637574e-02
      5.27692959e-02 3.27082425e-02 3.40165719e-02 2.35499348e-02
      3.48887928e-02</_>
    <_>
      1.58867706e-02 3.72616984e-02 3.63951474e-02 3.29289399e-02
      1.32871168e-02 4.67937589e-02 1.25072211e-01 3.06181386e-02
      6.61467314e-02 2.97515877e-02 5.45927174e-02 4.65049073e-02
      2.77296342e-02 2.45522819e-02 1.96418241e-02 2.80184858e-02
      1.19584054e-01 2.25303285e-02 2.19526272e-02 2.68630832e-02
      4.70826104e-02 2.31080297e-02 6.32582307e-02 2.68630832e-02
      1.35759674e-02</_>
    <_>
      1.51647711e-02 2.29554642e-02 4.35778871e-02 3.79119292e-02
      1.17485318e-02 2.44969390e-02 9.33216736e-02 4.36612107e-02
      4.43694554e-02 4.44944389e-02 1.90392882e-02 2.50385385e-02
      3.90784480e-02 1.89976264e-02 7.79902562e-02 3.88284810e-02
      9.76961255e-02 1.89143028e-02 2.37053707e-02 5.75761385e-02
      3.29958759e-02 3.82035598e-02 3.97450328e-02 2.32887566e-02
      6.71999380e-02</_>
    <_>
      2.26349384e-02 3.71445157e-02 5.91990724e-02 3.13406847e-02
      2.43760888e-02 1.74114909e-02 1.35229260e-01 2.78583877e-02
      7.13871196e-02 3.07603013e-02 1.85722578e-02 4.64306436e-02
      3.59837487e-02 1.91526413e-02 6.32617548e-02 2.84387693e-02
      6.73244372e-02 3.71445157e-02 3.13406847e-02 1.85722578e-02
      3.42426002e-02 3.48229818e-02 4.29483466e-02 3.77248973e-02
      2.66976207e-02</_>
    <_>
      8.14663991e-03 2.85132397e-02 1.15071289e-01 6.56822845e-02
      2.08757650e-02 5.04073352e-02 4.78615090e-02 2.64765806e-02
      2.34215893e-02 1.42566198e-02 9.62321833e-02 9.16497037e-03
      1.47657851e-02 6.97556064e-02 7.12830992e-03 2.44399197e-02
      1.24236256e-01 1.06924651e-02 8.55397210e-02 2.18940955e-02
      1.12016294e-02 1.88391041e-02 5.90631403e-02 3.92057039e-02
      7.12830992e-03</_>
    <_>
      1.63934417e-02 4.91803251e-02 1.63934410e-01 0. 0. 8.19672048e-02
      8.19672048e-02 0. 0. 3.27868834e-02 1.31147534e-01 0.
      1.63934417e-02 3.27868834e-02 1.63934417e-02 0. 1.80327863e-01
      8.19672048e-02 0. 0. 3.27868834e-02 0. 4.91803251e-02
      1.63934417e-02 1.63934417e-02</_>
    <_>
      1.65678672e-02 1.84678528e-02 8.20793398e-03 7.63793886e-02
      1.46678826e-02 1.85438525e-02 2.93357652e-02 1.40294880e-01
      1.78598575e-02 2.86517702e-02 1.81638543e-02 7.90393725e-03
      4.57516350e-02 1.04879159e-02 3.13877501e-02 3.30597349e-02
      2.69037858e-02 1.68718658e-02 1.55798756e-02 2.11050317e-01
      2.34838128e-02 4.81836163e-02 2.00638399e-02 1.79358572e-02
      1.04195170e-01</_>
    <_>
      4.21919227e-02 1.59506053e-02 4.60509397e-02 2.98430678e-02
      5.01672253e-02 4.78518158e-02 6.02006689e-02 8.92719328e-02
      5.06817624e-02 1.85232833e-02 4.60509397e-02 1.74942110e-02
      2.34113708e-02 3.96192446e-02 1.92950871e-02 2.13532299e-02
      8.18111673e-02 4.14201207e-02 2.59840507e-02 6.38024211e-02
      3.31875496e-02 2.21250318e-02 4.81090806e-02 2.05814261e-02
      4.50218692e-02</_>
    <_>
      2.50089318e-02 1.46480883e-02 1.38978198e-01 3.39406915e-02
      3.89424786e-02 1.25044659e-02 2.71525532e-02 1.85780637e-02
      5.64487316e-02 1.96498744e-02 2.10789554e-02 2.96534467e-02
      2.89389063e-02 7.53840655e-02 2.32225787e-02 2.21507680e-02
      1.21114679e-01 3.89424786e-02 3.82279381e-02 1.82207935e-02
      2.07216851e-02 2.53662020e-02 1.08252943e-01 1.71489809e-02
      2.57234722e-02</_>
    <_>
      1.78486444e-02 2.61780117e-02 4.14088555e-02 3.83150876e-02
      2.18943357e-02 4.30747271e-02 1.01856261e-01 5.02141863e-02
      4.92622592e-02 3.09376493e-02 3.59352715e-02 6.02094270e-02
      2.73679215e-02 1.61827710e-02 3.16515937e-02 2.87958123e-02
      1.16373159e-01 2.52260827e-02 3.09376493e-02 4.18848172e-02
      5.25940061e-02 2.28462648e-02 3.59352715e-02 2.40361746e-02
      2.90337950e-02</_>
    <_>
      4.36787196e-02 1.26991831e-02 5.90471551e-02 3.78548875e-02
      4.28698547e-02 3.73695716e-02 5.85618354e-02 6.85108751e-02
      4.46493551e-02 2.87955999e-02 2.79867351e-02 4.91790026e-02
      3.31634730e-02 2.96044648e-02 3.57518382e-02 2.35379767e-02
      4.76421565e-02 4.30316254e-02 2.93618049e-02 7.50626847e-02
      4.63479720e-02 3.47812027e-02 3.46194282e-02 1.32653881e-02
      4.26271930e-02</_>
    <_>
      3.29457372e-02 2.22358219e-02 2.89677680e-02 3.41697261e-02
      3.13137509e-02 5.25295809e-02 7.55813941e-02 2.66217869e-02
      8.24153423e-02 3.84536907e-02 3.69237028e-02 5.27335778e-02
      4.43696454e-02 2.20318232e-02 6.16075061e-02 3.53937149e-02
      3.10077518e-02 5.00815995e-02 1.73398610e-02 2.66217869e-02
      5.48755601e-02 4.60016318e-02 4.28396575e-02 1.77478585e-02
      3.51897180e-02</_>
    <_>
      6.70926496e-02 1.59744397e-02 4.47284356e-02 4.79233228e-02
      1.91693287e-02 6.38977624e-03 5.43130971e-02 1.27795525e-02
      2.87539922e-02 7.02875406e-02 3.83386575e-02 1.59744397e-02
      4.79233228e-02 3.19488794e-02 8.30670893e-02 5.43130971e-02
      6.70926496e-02 1.59744397e-02 3.51437703e-02 5.43130971e-02
      6.38977624e-03 4.47284356e-02 6.07028753e-02 9.58466437e-03
      6.70926496e-02</_>
    <_>
      2.25927904e-02 2.58203335e-02 2.42065620e-02 5.05648181e-02
      2.68961806e-02 3.71167287e-02 5.21785878e-02 3.17374915e-02
      3.60408798e-02 5.91715947e-02 4.51855808e-02 3.49650346e-02
      5.64819761e-02 2.42065620e-02 8.82194713e-02 4.51855808e-02
      3.65788043e-02 3.33512612e-02 2.09790207e-02 4.67993543e-02
      3.92684229e-02 4.67993543e-02 3.81925739e-02 2.25927904e-02
      5.48682064e-02</_>
    <_>
      5.02958558e-02 2.24006753e-02 6.72020316e-02 3.12764160e-02
      3.38123403e-02 3.38123403e-02 6.93152994e-02 2.87404899e-02
      5.79036362e-02 2.74725277e-02 2.02874057e-02 5.49450554e-02
      3.12764160e-02 5.11411652e-02 4.05748114e-02 2.78951824e-02
      4.90278937e-02 4.22654264e-02 1.64835155e-02 3.25443782e-02
      5.79036362e-02 2.57819109e-02 6.67793751e-02 1.60608627e-02
      4.48013507e-02</_>
    <_>
      7.02016428e-02 1.86706502e-02 6.72143418e-03 9.70873795e-03
      1.79238245e-02 7.99103826e-02 1.20985813e-01 1.41896941e-02
      1.08289771e-01 1.64301712e-02 2.98730396e-02 4.55563851e-02
      1.04555637e-02 5.97460791e-02 8.96191224e-03 2.24047806e-02
      1.11277074e-01 3.06198653e-02 1.94174759e-02 9.70873795e-03
      3.88349518e-02 1.12023903e-02 1.02315165e-01 2.46452577e-02
      1.19492160e-02</_>
    <_>
      1.74216032e-02 2.43902449e-02 2.43902449e-02 3.48432059e-03
      1.39372824e-02 3.48432064e-02 1.63763061e-01 1.39372824e-02
      1.77700356e-01 1.74216032e-02 6.27177730e-02 2.43902449e-02
      1.04529615e-02 5.22648096e-02 2.78745648e-02 4.87804897e-02
      3.48432064e-02 1.04529615e-02 1.04529615e-02 1.04529615e-02
      9.75609794e-02 2.09059231e-02 8.36236924e-02 1.39372824e-02 0.</_>
    <_>
      3.51707116e-02 2.96174418e-02 6.93130419e-02 2.46812012e-02
      3.61990966e-02 2.79720295e-02 5.96462376e-02 2.03619916e-02
      5.80008253e-02 3.80501859e-02 3.61990966e-02 8.98807123e-02
      3.14685330e-02 4.07239832e-02 3.66104506e-02 3.55820656e-02
      4.83340211e-02 5.92348836e-02 3.14685330e-02 2.26244349e-02
      4.58659008e-02 2.98231188e-02 4.31921035e-02 2.57095862e-02
      2.42698491e-02</_>
    <_>
      4.13793139e-03 3.58620696e-02 6.06896579e-02 2.34482773e-02
      5.51724155e-03 2.89655179e-02 1.91724136e-01 1.93103459e-02
      5.65517247e-02 1.51724145e-02 4.82758619e-02 2.89655179e-02
      2.20689662e-02 2.75862068e-02 2.75862068e-02 2.48275865e-02
      1.31034493e-01 4.41379324e-02 2.89655179e-02 2.06896551e-02
      7.72413835e-02 1.37931034e-02 1.24137932e-02 3.31034511e-02
      1.79310348e-02</_>
    <_>
      1.38513520e-01 3.04054059e-02 3.37837860e-02 2.19594594e-02
      8.44594650e-03 1.52027030e-02 2.02702712e-02 1.01351356e-02
      1.18243247e-02 1.35135138e-02 1.85810812e-02 1.57094598e-01
      2.70270277e-02 1.03040546e-01 3.20945941e-02 2.02702712e-02
      2.70270277e-02 1.73986495e-01 0. 8.44594650e-03 2.70270277e-02
      2.87162177e-02 2.53378376e-02 2.53378376e-02 2.19594594e-02</_>
    <_>
      5.01815118e-02 2.14744471e-02 1.44931581e-02 3.94303240e-02
      3.53253260e-02 6.90030679e-02 8.03686082e-02 2.04970669e-02
      6.96174204e-02 3.61072309e-02 5.68556264e-02 2.30382569e-02
      3.44875716e-02 3.63027081e-02 2.91538667e-02 3.14716548e-02
      7.37224221e-02 4.42893021e-02 2.30941065e-02 2.53560450e-02
      4.16643396e-02 3.12482547e-02 6.38648421e-02 2.65009776e-02
      2.24518292e-02</_>
    <_>
      2.13076472e-02 3.12317573e-02 2.07238756e-02 3.94045524e-02
      2.39346176e-02 7.29713961e-02 9.01926458e-02 6.56742528e-02
      4.90367785e-02 3.64856981e-02 5.28312884e-02 2.56859306e-02
      2.74372436e-02 3.91126685e-02 1.89725626e-02 3.23993005e-02
      8.20198432e-02 2.48102732e-02 2.15995330e-02 6.83012232e-02
      2.53940448e-02 2.94804424e-02 3.56100388e-02 2.88966727e-02
      3.64856981e-02</_>
    <_>
      4.32432443e-02 2.02702712e-02 3.24324332e-02 3.37837860e-02
      3.71621624e-02 3.98648642e-02 7.63513520e-02 2.43243240e-02
      4.79729734e-02 3.31081077e-02 4.05405425e-02 7.56756812e-02
      3.98648642e-02 4.25675698e-02 5.40540554e-02 2.56756768e-02
      4.18918915e-02 3.04054059e-02 2.16216221e-02 2.77027041e-02
      7.16216266e-02 3.31081077e-02 5.06756753e-02 2.50000004e-02
      3.10810823e-02</_>
    <_>
      4.87144776e-02 1.28552094e-02 1.66441128e-01 1.82679296e-02
      3.38294990e-02 2.43572388e-02 2.77401879e-02 1.01488493e-02
      3.65358591e-02 1.82679296e-02 5.34506068e-02 8.18673819e-02
      1.69147495e-02 7.91610256e-02 8.11907928e-03 1.42083894e-02
      1.36671171e-01 2.84167789e-02 2.30040587e-02 1.35317994e-02
      4.33017574e-02 6.76589971e-03 7.51014873e-02 1.01488493e-02
      1.21786194e-02</_>
    <_>
      2.76896451e-02 1.70175936e-02 1.26334012e-01 2.85549462e-02
      2.49495246e-02 4.35535051e-02 6.48976043e-02 3.10066342e-02
      6.12921827e-02 2.16325354e-02 5.04759140e-02 2.79780794e-02
      3.90827805e-02 5.95615804e-02 5.10527827e-02 2.72569936e-02
      6.08595312e-02 3.98038663e-02 2.43726559e-02 2.29304880e-02
      2.59590428e-02 3.47562730e-02 4.86010946e-02 1.86039805e-02
      2.17767525e-02</_>
    <_>
      3.18344608e-02 1.67130921e-02 1.36092320e-01 2.18861923e-02
      4.13848013e-02 4.45682444e-02 5.17309979e-02 2.06924006e-02
      3.82013544e-02 2.54675690e-02 2.74572223e-02 1.09828889e-01
      1.79068837e-02 5.80978915e-02 2.78551541e-02 2.58654989e-02
      7.08316788e-02 4.57620397e-02 2.66613606e-02 1.98965389e-02
      4.85475548e-02 1.71110220e-02 2.70592924e-02 2.06924006e-02
      2.78551541e-02</_>
    <_>
      8.46153870e-02 2.56410264e-03 1.38461545e-01 1.53846163e-02
      5.38461544e-02 1.20512821e-01 2.56410264e-03 2.56410264e-03
      1.53846163e-02 1.28205130e-02 8.71794894e-02 5.12820529e-03
      2.56410264e-03 4.10256423e-02 1.28205130e-02 5.12820529e-03
      1.69230774e-01 1.05128206e-01 4.61538471e-02 0. 1.28205130e-02
      5.12820529e-03 4.10256423e-02 0. 1.79487187e-02</_>
    <_>
      3.11263334e-02 2.43150704e-02 3.70243564e-02 6.14916310e-02
      4.01446000e-02 3.25342491e-02 8.48934576e-02 7.80060887e-02
      5.25114164e-02 2.52283122e-02 2.69786920e-02 2.69786920e-02
      4.54337932e-02 2.74733659e-02 2.13089809e-02 2.24885847e-02
      6.94063976e-02 2.22222228e-02 2.43911725e-02 7.15372935e-02
      4.02587540e-02 4.47488613e-02 3.51598188e-02 2.16894988e-02
      3.26484032e-02</_>
    <_>
      4.80494760e-02 3.42530906e-02 4.47193123e-02 1.76022835e-02
      3.61560397e-02 4.09134142e-02 8.37297812e-02 5.23311133e-03
      1.00380585e-01 1.56993344e-02 4.61465269e-02 1.06565177e-01
      1.33206472e-02 3.85347269e-02 1.33206472e-02 2.09324453e-02
      3.75832543e-02 6.32730722e-02 2.09324453e-02 9.51474719e-03
      8.65842029e-02 1.61750708e-02 5.85156977e-02 2.75927689e-02
      1.42721217e-02</_>
    <_>
